{"learner":{"attributes":{"scikit_learn":"{\"_estimator_type\": \"regressor\"}"},"feature_names":["CarName","fueltype","aspiration","doornumber","carbody","drivewheel","enginelocation","wheelbase","color","carlength","carwidth","carheight","curbweight","cylindernumber","enginesize","compressionratio","horsepower","peakrpm","citympg","highwaympg"],"feature_types":["int","int","int","int","int","int","int","float","int","float","float","float","int","float","int","float","float","int","int","int"],"gradient_booster":{"model":{"gbtree_model_param":{"num_parallel_tree":"1","num_trees":"100"},"iteration_indptr":[0,1,2,3,4,5,6,7,8,9,10,11,12,13,14,15,16,17,18,19,20,21,22,23,24,25,26,27,28,29,30,31,32,33,34,35,36,37,38,39,40,41,42,43,44,45,46,47,48,49,50,51,52,53,54,55,56,57,58,59,60,61,62,63,64,65,66,67,68,69,70,71,72,73,74,75,76,77,78,79,80,81,82,83,84,85,86,87,88,89,90,91,92,93,94,95,96,97,98,99,100],"tree_info":[0,0,0,0,0,0,0,0,0,0,0,0,0,0,0,0,0,0,0,0,0,0,0,0,0,0,0,0,0,0,0,0,0,0,0,0,0,0,0,0,0,0,0,0,0,0,0,0,0,0,0,0,0,0,0,0,0,0,0,0,0,0,0,0,0,0,0,0,0,0,0,0,0,0,0,0,0,0,0,0,0,0,0,0,0,0,0,0,0,0,0,0,0,0,0,0,0,0,0,0],"trees":[{"base_weights":[1.3202432E2,-1.1016676E3,1.2078347E3,-3.6102654E3,3.9380107E3,-4.662696E3,-1.2939178E3,-3.9293472E2,4.4390938E3,-3.108554E2,-2.833738E3,3.6933847E2,-2.1827349E3,9.477835E1,-1.1033773E3,4.397129E2,3.7900078E3,4.587835E1,-3.1064265E3,1.2199935E3,-1.0655774E3,-2.4805784E3,4.3118555E2,-1.0030887E2,-1.6714778E2,2.6259333E3,5.39986E3,-1.955084E2,-2.477165E1,-4.1028866E1,1.9685653E3,-1.6868868E1,-8.9688866E1,-1.7740482E2,-9.737849E1,-3.9216504E0,4.2728348E1,-1.562165E1,5.783496E-1,4.303692E3,1.5180735E3,3.741588E2,2.4804226E3,1.572835E1,1.3544536E2,2.983539E2,1.3346751E2,-4.1085434E0,1.4861104E2,2.337835E1,1.7434251E2],"categories":[],"categories_nodes":[],"categories_segments":[],"categories_sizes":[],"default_left":[0,0,0,0,0,0,0,0,0,0,0,0,0,0,0,0,0,0,0,0,0,0,0,0,0,0,0,0,0,0,0,0,0,0,0,0,0,0,0,0,0,0,0,0,0,0,0,0,0,0,0],"id":0,"left_children":[1,3,-1,5,7,9,11,13,15,-1,17,19,21,-1,23,-1,25,-1,27,29,31,33,35,-1,37,39,41,-1,-1,-1,43,-1,-1,-1,-1,-1,-1,-1,-1,45,47,-1,49,-1,-1,-1,-1,-1,-1,-1,-1],"loss_changes":[3.8216742E9,1.8600261E9,0E0,2.3287066E8,1.080823E8,4.882227E7,4.8112744E7,1.0151342E7,5.474701E7,0E0,1.9056304E7,1.5947417E7,1.7418904E7,0E0,2.381498E6,0E0,5.703187E7,0E0,5.207488E6,1.2747228E7,1.2632675E6,2.960192E6,4.650655E5,0E0,5.194621E4,3.8076E7,2.1147136E7,0E0,0E0,0E0,2.365724E6,0E0,0E0,0E0,0E0,0E0,0E0,0E0,0E0,1.455424E6,2.4507956E7,0E0,3.313724E6,0E0,0E0,0E0,0E0,0E0,0E0,0E0,0E0],"parents":[2147483647,0,0,1,1,3,3,4,4,5,5,6,6,7,7,8,8,10,10,11,11,12,12,14,14,16,16,18,18,19,19,20,20,21,21,22,22,24,24,25,25,26,26,30,30,39,39,40,40,42,42],"right_children":[2,4,-1,6,8,10,12,14,16,-1,18,20,22,-1,24,-1,26,-1,28,30,32,34,36,-1,38,40,42,-1,-1,-1,44,-1,-1,-1,-1,-1,-1,-1,-1,46,48,-1,50,-1,-1,-1,-1,-1,-1,-1,-1],"split_conditions":[1.83E2,2.67E3,1.2078347E3,2.37E3,1.21E2,9E1,3E1,4E0,1.6E1,-3.108554E2,5E0,6.1E1,1.27E2,9.477835E1,9.61E1,4.397129E2,6.79E1,4.587835E1,1.33E2,2.385E3,1.02E2,2.6E1,1.33E2,-1.0030887E2,8.6E1,1.41E2,5.61E1,-1.955084E2,-2.477165E1,-4.1028866E1,1E0,-1.6868868E1,-8.9688866E1,-1.7740482E2,-9.737849E1,-3.9216504E0,4.2728348E1,-1.562165E1,5.783496E-1,1.03E2,2.921E3,3.741588E2,8.5E1,1.572835E1,1.3544536E2,2.983539E2,1.3346751E2,-4.1085434E0,1.4861104E2,2.337835E1,1.7434251E2],"split_indices":[14,12,0,12,14,16,19,8,0,0,0,0,0,0,7,0,10,0,0,12,0,18,0,0,0,14,11,0,0,0,3,0,0,0,0,0,0,0,0,0,12,0,0,0,0,0,0,0,0,0,0],"split_type":[0,0,0,0,0,0,0,0,0,0,0,0,0,0,0,0,0,0,0,0,0,0,0,0,0,0,0,0,0,0,0,0,0,0,0,0,0,0,0,0,0,0,0,0,0,0,0,0,0,0,0],"sum_hessian":[1.53E2,1.45E2,8E0,9.7E1,4.8E1,6.6E1,3.1E1,5E0,4.3E1,5E1,1.6E1,1.1E1,2E1,1E0,4E0,6E0,3.7E1,1E0,1.5E1,7E0,4E0,1.8E1,2E0,2E0,2E0,2.3E1,1.4E1,1.4E1,1E0,2E0,5E0,2E0,2E0,1E1,8E0,1E0,1E0,1E0,1E0,8E0,1.5E1,1E1,4E0,1E0,4E0,5E0,3E0,6E0,9E0,1E0,3E0],"tree_param":{"num_deleted":"0","num_feature":"20","num_nodes":"51","size_leaf_vector":"1"}},{"base_weights":[-2.2125156E2,-3.4568984E3,5.271743E3,1.0256587E3,-3.880877E3,3.7033806E3,1.0634521E3,-3.9387695E1,1.6000447E3,-4.3842456E3,-1.5502855E3,-1.685542E2,4.127907E3,1.9590275E3,-1.6615576E1,-3.624959E3,-3.0369934E2,1.0714467E2,-1.2684835E2,-1.0602451E3,1.28697E2,2.8120325E3,5.216958E3,2.816499E1,2.1630664E3,-2.2040544E2,-5.6406387E1,-9.629652E1,-1.6213313E2,1.8718076E3,3.098421E2,5.771789E3,1.954241E3,1.4589748E2,3.266499E1,-1.51529875E1,5.6100583E-1,4.0515845E2,2.768297E3,1.6688179E2,6.135902E3,2.2313845E3,2.5370008E1,5.326494E1,-4.170453E1,-1.1525683E1,1.8501276E2,4.1465518E2,2.1379291E2,3.7948067E1,1.5321205E2],"categories":[],"categories_nodes":[],"categories_segments":[],"categories_sizes":[],"default_left":[0,0,0,0,0,0,0,0,0,0,0,0,0,0,0,0,0,0,0,0,0,0,0,0,0,0,0,0,0,0,0,0,0,0,0,0,0,0,0,0,0,0,0,0,0,0,0,0,0,0,0],"id":1,"left_children":[1,3,5,7,9,11,-1,-1,13,15,17,19,21,23,-1,25,-1,-1,-1,27,-1,29,31,-1,33,-1,-1,-1,35,37,-1,39,41,-1,-1,-1,-1,43,45,-1,47,49,-1,-1,-1,-1,-1,-1,-1,-1,-1],"loss_changes":[2.684233E9,1.8452864E8,1.0280388E9,9.746046E6,9.526694E7,8.452646E7,0E0,0E0,5.25911E6,1.8170496E7,3.5752868E7,1.4651759E7,5.1250176E7,8.08252E5,0E0,1.36112E6,0E0,0E0,0E0,2.1857805E6,0E0,4.119637E7,3.2166784E7,0E0,8.49692E5,0E0,0E0,0E0,4.8876195E4,2.2545444E7,0E0,4.710848E6,1.178594E6,0E0,0E0,0E0,0E0,4.864753E6,1.0858184E7,0E0,9.270848E6,4.45332E5,0E0,0E0,0E0,0E0,0E0,0E0,0E0,0E0,0E0],"parents":[2147483647,0,0,1,1,2,2,3,3,4,4,5,5,8,8,9,9,10,10,11,11,12,12,13,13,15,15,19,19,21,21,22,22,24,24,28,28,29,29,31,31,32,32,37,37,38,38,40,40,41,41],"right_children":[2,4,6,8,10,12,-1,-1,14,16,18,20,22,24,-1,26,-1,-1,-1,28,-1,30,32,-1,34,-1,-1,-1,36,38,-1,40,42,-1,-1,-1,-1,44,46,-1,48,50,-1,-1,-1,-1,-1,-1,-1,-1,-1],"split_conditions":[2.67E3,2.2E1,3.495E3,2.385E3,1.75E2,1.21E2,1.0634521E3,-3.9387695E1,6.1E1,3E1,1.1E1,1.1E1,1.012E2,3E0,-1.6615576E1,6.56E1,-3.0369934E2,1.0714467E2,-1.2684835E2,9.61E1,1.28697E2,6.66E1,4E0,2.816499E1,5.6E1,-2.2040544E2,-5.6406387E1,-9.629652E1,8.6E1,5.24E1,3.098421E2,3E0,1.3E2,1.4589748E2,3.266499E1,-1.51529875E1,5.6100583E-1,9.1E1,2.7E3,1.6688179E2,2.2E1,8.6E1,2.5370008E1,5.326494E1,-4.170453E1,-1.1525683E1,1.8501276E2,4.1465518E2,2.1379291E2,3.7948067E1,1.5321205E2],"split_indices":[12,18,12,12,9,14,0,0,0,18,0,8,7,0,0,10,0,0,0,7,0,10,4,0,0,0,0,0,0,11,0,4,0,0,0,0,0,0,12,0,18,0,0,0,0,0,0,0,0,0,0],"split_type":[0,0,0,0,0,0,0,0,0,0,0,0,0,0,0,0,0,0,0,0,0,0,0,0,0,0,0,0,0,0,0,0,0,0,0,0,0,0,0,0,0,0,0,0,0,0,0,0,0,0,0],"sum_hessian":[1.49E2,9.4E1,5.5E1,8E0,8.6E1,5E1,5E0,2E0,6E0,7E1,1.6E1,5E0,4.5E1,5E0,1E0,3.6E1,3.4E1,2E0,1.4E1,4E0,1E0,2.2E1,2.3E1,1E0,4E0,3.5E1,1E0,2E0,2E0,1.7E1,5E0,1.9E1,4E0,3E0,1E0,1E0,1E0,7E0,1E1,3E0,1.6E1,3E0,1E0,5E0,2E0,1E0,9E0,1.1E1,5E0,1E0,2E0],"tree_param":{"num_deleted":"0","num_feature":"20","num_nodes":"51","size_leaf_vector":"1"}},{"base_weights":[-1.1676272E2,-3.183873E3,6.7697905E3,-4.266326E3,-8.2408124E2,4.169009E3,1.0025816E3,-3.2255767E3,-2.9151477E2,1.3266733E3,-1.5653896E3,4.992867E3,1.7678104E3,-1.9941245E2,-1.7416348E1,2.4311343E3,-4.3122265E1,1.0285889E2,-1.9251167E3,3.9949637E2,2.9708284E3,1.5998608E2,2.350746E3,2.7320038E1,1.6867503E2,-2.0650839E1,2.723102E2,-2.180292E3,5.0281577E2,8.481592E2,2.4335094E2,-1.4698388E1,2.2597813E1,9.099751E2,1.8199283E2,3.1685038E1,-7.177119E0,-2.367122E3,-4.7669018E1,1.4648438E-3,4.5251953E1,9.064882E0,6.953566E1,9.2389595E1,1.8674902E2,-1.6979117E2,-7.4142555E1,1.6263222E1,5.4418945E-1],"categories":[],"categories_nodes":[],"categories_segments":[],"categories_sizes":[],"default_left":[0,0,0,0,0,0,0,0,0,0,0,0,0,0,0,0,0,0,0,0,0,0,0,0,0,0,0,0,0,0,0,0,0,0,0,0,0,0,0,0,0,0,0,0,0,0,0,0,0],"id":2,"left_children":[1,3,5,7,9,11,-1,13,-1,15,17,19,21,-1,-1,23,25,-1,27,-1,29,31,33,-1,-1,-1,35,37,39,41,-1,-1,-1,43,-1,-1,-1,45,-1,-1,-1,-1,-1,-1,47,-1,-1,-1,-1],"loss_changes":[3.0842179E9,2.5447507E8,1.0936556E9,2.685888E7,5.469105E7,6.4368704E7,0E0,7.086784E6,0E0,1.3720808E7,3.279522E7,7.114234E7,9.93376E6,0E0,0E0,2.475112E6,5.6854194E5,0E0,1.5345896E7,0E0,2.8803968E7,4.4319244E5,5.106088E6,0E0,0E0,0E0,3.6390406E5,3.55648E6,3.791618E5,1.124687E6,0E0,0E0,0E0,1.5345392E6,0E0,0E0,0E0,5.92684E6,0E0,0E0,0E0,0E0,0E0,0E0,4.2479156E4,0E0,0E0,0E0,0E0],"parents":[2147483647,0,0,1,1,2,2,3,3,4,4,5,5,7,7,9,9,10,10,11,11,12,12,15,15,16,16,18,18,20,20,21,21,22,22,26,26,27,27,28,28,29,29,33,33,37,37,44,44],"right_children":[2,4,6,8,10,12,-1,14,-1,16,18,20,22,-1,-1,24,26,-1,28,-1,30,32,34,-1,-1,-1,36,38,40,42,-1,-1,-1,44,-1,-1,-1,46,-1,-1,-1,-1,-1,-1,48,-1,-1,-1,-1],"split_conditions":[2.756E3,2.337E3,1.83E2,3E1,2.2E1,5.62E1,1.0025816E3,1.38E2,-2.9151477E2,9.31E0,1.1E1,1.45E2,3.045E3,-1.9941245E2,-1.7416348E1,3E0,9E0,1.0285889E2,1.28E2,3.9949637E2,1.54E2,8.6E1,1.1E1,2.7320038E1,1.6867503E2,-2.0650839E1,6.1E1,2.658E3,1.33E2,2.844E3,2.4335094E2,-1.4698388E1,2.2597813E1,4E0,1.8199283E2,3.1685038E1,-7.177119E0,2.6E1,-4.7669018E1,1.4648438E-3,4.5251953E1,9.064882E0,6.953566E1,9.2389595E1,8.5E1,-1.6979117E2,-7.4142555E1,1.6263222E1,5.4418945E-1],"split_indices":[12,12,14,18,18,11,0,0,0,15,0,16,12,0,0,0,8,0,0,0,16,0,8,0,0,0,0,12,0,12,0,0,0,8,0,0,0,18,0,0,0,0,0,0,0,0,0,0,0],"split_type":[0,0,0,0,0,0,0,0,0,0,0,0,0,0,0,0,0,0,0,0,0,0,0,0,0,0,0,0,0,0,0,0,0,0,0,0,0,0,0,0,0,0,0,0,0,0,0,0,0],"sum_hessian":[1.44E2,1E2,4.4E1,6.8E1,3.2E1,3.6E1,8E0,2.7E1,4.1E1,8E0,2.4E1,2.6E1,1E1,2.6E1,1E0,4E0,4E0,2E0,2.2E1,1.3E1,1.3E1,3E0,7E0,1E0,3E0,2E0,2E0,2E1,2E0,5E0,8E0,1E0,2E0,3E0,4E0,1E0,1E0,1.7E1,3E0,1E0,1E0,2E0,3E0,1E0,2E0,1.1E1,6E0,1E0,1E0],"tree_param":{"num_deleted":"0","num_feature":"20","num_nodes":"49","size_leaf_vector":"1"}},{"base_weights":[1.8937012E2,-2.8759941E3,5.703583E3,-4.2687285E3,-1.1098523E3,3.626776E3,9.5492395E2,-1.0235081E3,-4.3718784E3,7.5196967E2,-1.8897166E3,-1.8340976E2,3.985477E3,-7.522186E1,-1.6893867E1,-2.8911023E2,-2.1141116E2,1.6045648E3,-1.1036146E3,-1.7407845E2,-2.20098E3,8.9617905E1,-9.760781E2,6.106174E3,3.3262842E3,-3.8032867E1,2.2434116E3,-3.9755908E2,-1.17835106E2,-7.562121E1,6.8414746E2,-2.563456E3,-1.5342634E3,-1.5255078E2,-1.033998E2,1.6877509E2,4.370389E2,2.292657E3,4.712964E3,2.4155684E1,2.4488718E3,-6.9618163E0,-2.7163515E1,5.4730858E1,1.4062499E-3,-1.5954822E2,-3.3847206E1,-9.565532E1,-2.6230547E1,-1.42574415E1,5.278711E-1,3.9987415E3,1.5556473E3,5.5125327E3,2.1712334E3,2.650043E1,1.6258754E2,2.6232388E2,6.396369E1,4.289287E0,1.3008537E2,9.89366E1,3.4551627E2,1.5775312E1,1.5495485E2],"categories":[],"categories_nodes":[],"categories_segments":[],"categories_sizes":[],"default_left":[0,0,0,0,0,0,0,0,0,0,0,0,0,0,0,0,0,0,0,0,0,0,0,0,0,0,0,0,0,0,0,0,0,0,0,0,0,0,0,0,0,0,0,0,0,0,0,0,0,0,0,0,0,0,0,0,0,0,0,0,0,0,0,0,0],"id":3,"left_children":[1,3,5,7,9,11,-1,13,15,17,19,21,23,-1,-1,-1,-1,25,27,29,31,-1,33,35,37,-1,39,41,-1,-1,43,45,47,49,-1,-1,-1,51,53,-1,55,-1,-1,-1,-1,-1,-1,-1,-1,-1,-1,57,59,61,63,-1,-1,-1,-1,-1,-1,-1,-1,-1,-1],"loss_changes":[2.6025733E9,2.3877926E8,1.1087169E9,1.3936256E7,6.6759584E7,6.4966656E7,0E0,1.5936625E5,3.103488E6,2.3919692E7,1.6705344E7,8.1045905E6,3.980096E7,0E0,0E0,0E0,0E0,1.5722292E7,2.256338E6,6.455884E6,2.592032E6,0E0,2.198634E6,1.4420128E7,3.936061E7,0E0,2.039816E6,9.5936875E3,0E0,0E0,6.239915E5,1.560704E6,9.2828E4,4.326993E4,0E0,0E0,0E0,2.1442184E7,1.648304E7,0E0,2.469192E6,0E0,0E0,0E0,0E0,0E0,0E0,0E0,0E0,0E0,0E0,1.908152E6,1.5297364E7,1.1584E4,3.245878E6,0E0,0E0,0E0,0E0,0E0,0E0,0E0,0E0,0E0,0E0],"parents":[2147483647,0,0,1,1,2,2,3,3,4,4,5,5,7,7,8,8,9,9,10,10,11,11,12,12,17,17,18,18,19,19,20,20,22,22,23,23,24,24,26,26,27,27,30,30,31,31,32,32,33,33,37,37,38,38,40,40,51,51,52,52,53,53,54,54],"right_children":[2,4,6,8,10,12,-1,14,16,18,20,22,24,-1,-1,-1,-1,26,28,30,32,-1,34,36,38,-1,40,42,-1,-1,44,46,48,50,-1,-1,-1,52,54,-1,56,-1,-1,-1,-1,-1,-1,-1,-1,-1,-1,58,60,62,64,-1,-1,-1,-1,-1,-1,-1,-1,-1,-1],"split_conditions":[2.7E3,2.293E3,1.83E2,3E1,3E1,1.21E2,9.5492395E2,1.15E2,2.122E3,6.1E1,1.1E2,4E0,1.6E1,-7.522186E1,-1.6893867E1,-2.8911023E2,-2.1141116E2,2.385E3,4E0,9.84E1,6.57E1,8.9617905E1,8.7E1,6E0,6.79E1,-3.8032867E1,2E0,1.02E2,-1.17835106E2,-7.562121E1,4E0,1.24E2,1.16E2,8.6E1,-1.033998E2,1.6877509E2,4.370389E2,1.36E2,5.61E1,2.4155684E1,3E0,-6.9618163E0,-2.7163515E1,5.4730858E1,1.4062499E-3,-1.5954822E2,-3.3847206E1,-9.565532E1,-2.6230547E1,-1.42574415E1,5.278711E-1,1E0,2.921E3,6.3E1,8.5E1,2.650043E1,1.6258754E2,2.6232388E2,6.396369E1,4.289287E0,1.3008537E2,9.89366E1,3.4551627E2,1.5775312E1,1.5495485E2],"split_indices":[12,12,14,19,19,14,0,0,12,0,14,8,0,0,0,0,0,12,4,7,10,0,0,0,10,0,5,0,0,0,4,0,0,0,0,0,0,14,11,0,0,0,0,0,0,0,0,0,0,0,0,3,12,0,0,0,0,0,0,0,0,0,0,0,0],"split_type":[0,0,0,0,0,0,0,0,0,0,0,0,0,0,0,0,0,0,0,0,0,0,0,0,0,0,0,0,0,0,0,0,0,0,0,0,0,0,0,0,0,0,0,0,0,0,0,0,0,0,0,0,0,0,0,0,0,0,0,0,0,0,0,0,0],"sum_hessian":[1.52E2,9.8E1,5.4E1,5.4E1,4.4E1,4.6E1,8E0,2E0,5.2E1,1.3E1,3.1E1,4E0,4.2E1,1E0,1E0,3.1E1,2.1E1,9E0,4E0,5E0,2.6E1,1E0,3E0,8E0,3.4E1,2E0,7E0,3E0,1E0,2E0,3E0,1.5E1,1.1E1,2E0,1E0,3E0,5E0,2.1E1,1.3E1,1E0,6E0,1E0,2E0,2E0,1E0,1.4E1,1E0,1E1,1E0,1E0,1E0,5E0,1.6E1,9E0,4E0,1E0,5E0,4E0,1E0,5E0,1.1E1,1E0,8E0,1E0,3E0],"tree_param":{"num_deleted":"0","num_feature":"20","num_nodes":"65","size_leaf_vector":"1"}},{"base_weights":[1.4866273E2,-2.9568237E3,5.8024297E3,-3.751E3,-1.0169037E3,3.7574766E3,9.638479E2,-2.4436938E2,-2.1268162E3,1.2812227E3,-1.7405748E3,3.255457E3,5.8606426E3,3.655998E1,-2.384161E3,1.5955177E2,-7.740078E1,-2.3723784E3,-1.2033341E3,5.092737E3,2.794988E3,1.3915904E2,3.9927188E2,-2.5373213E3,-1.638706E1,2.5856865E1,-1.873349E1,-1.5289406E2,-2.3690214E1,2.3431025E1,-1.3450747E3,1.6330815E2,3.7142917E2,2.149202E3,2.5167195E2,-1.72868E2,-8.8785484E1,-8.691273E1,1.3769531E-3,1.1101991E3,2.837124E3,1.3782227E2,3.8587658E1,2.7291364E2,9.159298E1],"categories":[],"categories_nodes":[],"categories_segments":[],"categories_sizes":[],"default_left":[0,0,0,0,0,0,0,0,0,0,0,0,0,0,0,0,0,0,0,0,0,0,0,0,0,0,0,0,0,0,0,0,0,0,0,0,0,0,0,0,0,0,0,0,0],"id":4,"left_children":[1,3,5,7,9,11,-1,-1,13,15,17,19,21,-1,23,-1,25,27,29,31,33,-1,-1,35,-1,-1,-1,-1,-1,-1,37,-1,-1,39,-1,-1,-1,-1,-1,41,43,-1,-1,-1,-1],"loss_changes":[2.773715E9,1.5333069E8,1.1147826E9,2.8972288E7,5.3785784E7,3.1600704E7,0E0,0E0,1.1310624E7,1.5183002E7,5.291568E6,2.0452288E7,7.057408E6,0E0,3.510272E6,0E0,7.31415E5,2.471488E6,3.913978E6,1.369568E6,2.2618336E7,0E0,0E0,9.9856E4,0E0,0E0,0E0,0E0,0E0,0E0,1.94853E6,0E0,0E0,1.5433808E7,0E0,0E0,0E0,0E0,0E0,5.174775E6,2.6700872E7,0E0,0E0,0E0,0E0],"parents":[2147483647,0,0,1,1,2,2,3,3,4,4,5,5,8,8,9,9,10,10,11,11,12,12,14,14,16,16,17,17,18,18,19,19,20,20,23,23,30,30,33,33,39,39,40,40],"right_children":[2,4,6,8,10,12,-1,-1,14,16,18,20,22,-1,24,-1,26,28,30,32,34,-1,-1,36,-1,-1,-1,-1,-1,-1,38,-1,-1,40,-1,-1,-1,-1,-1,42,44,-1,-1,-1,-1],"split_conditions":[2.7E3,2.37E3,1.83E2,9E1,2.2E1,6.88E1,9.638479E2,-2.4436938E2,5E0,5.5E1,1.75E2,1.6E1,2.975E3,3.655998E1,1.33E2,1.5955177E2,6.1E1,1.09E2,2.9E1,9E0,1.6E2,1.3915904E2,3.9927188E2,8.8E0,-1.638706E1,2.5856865E1,-1.873349E1,-1.5289406E2,-2.3690214E1,2.3431025E1,1.28E2,1.6330815E2,3.7142917E2,9.1E0,2.5167195E2,-1.72868E2,-8.8785484E1,-8.691273E1,1.3769531E-3,9.7E1,7E0,1.3782227E2,3.8587658E1,2.7291364E2,9.159298E1],"split_indices":[12,12,14,16,18,10,0,0,0,0,9,0,12,0,0,0,0,0,19,0,16,0,0,15,0,0,0,0,0,0,0,0,0,15,0,0,0,0,0,16,8,0,0,0,0],"split_type":[0,0,0,0,0,0,0,0,0,0,0,0,0,0,0,0,0,0,0,0,0,0,0,0,0,0,0,0,0,0,0,0,0,0,0,0,0,0,0,0,0,0,0,0,0],"sum_hessian":[1.56E2,1.01E2,5.5E1,7.1E1,3E1,4.7E1,8E0,5.8E1,1.3E1,7E0,2.3E1,4E1,7E0,1E0,1.2E1,3E0,4E0,9E0,1.4E1,6E0,3.4E1,2E0,5E0,1.1E1,1E0,1E0,3E0,8E0,1E0,1E0,1.3E1,3E0,3E0,2.5E1,9E0,7E0,4E0,1.2E1,1E0,1.1E1,1.4E1,2E0,9E0,5E0,9E0],"tree_param":{"num_deleted":"0","num_feature":"20","num_nodes":"45","size_leaf_vector":"1"}},{"base_weights":[-2.978244E1,-1.0567433E3,9.2881824E2,-3.083992E3,2.749943E3,-3.6427305E3,-1.3751213E3,1.4246057E3,4.0714624E3,-2.5264883E2,-2.9937354E3,6.103423E2,-1.8769147E3,2.5506895E3,-2.8939682E2,5.2190015E3,2.0321816E3,-1.8361961E2,-1.5895458E1,-4.2893612E1,1.4516836E3,-2.0311537E3,-2.7442905E2,1.5377261E3,2.4909009E2,-1.1005942E2,4.2939258E2,1.2287912E2,3.3154315E2,2.548112E1,2.475284E3,9.94139E1,2.5081171E1,-2.3055825E3,-6.3137657E1,-4.7426716E1,2.2728106E1,2.6023787E3,6.801024E2,-3.0474176E2,1.19954506E2,-1.4987344E1,1.7280643E1,1.2554267E1,2.7323848E3,-1.509208E2,-6.914008E1,2.0918877E1,1.8471896E2,6.117851E1,1.6347023E1,-4.2499825E1,2.8169199E1,2.0620764E2,7.0126625E1],"categories":[],"categories_nodes":[],"categories_segments":[],"categories_sizes":[],"default_left":[0,0,0,0,0,0,0,0,0,0,0,0,0,0,0,0,0,0,0,0,0,0,0,0,0,0,0,0,0,0,0,0,0,0,0,0,0,0,0,0,0,0,0,0,0,0,0,0,0,0,0,0,0,0,0],"id":5,"left_children":[1,3,-1,5,7,9,11,13,15,-1,17,19,21,23,25,27,29,-1,-1,-1,31,33,35,37,-1,-1,39,-1,-1,41,43,-1,-1,45,-1,-1,-1,47,49,51,-1,-1,-1,-1,53,-1,-1,-1,-1,-1,-1,-1,-1,-1,-1],"loss_changes":[2.5648788E9,1.1737628E9,0E0,8.951718E7,8.702714E7,1.467648E7,2.7049156E7,5.4781256E7,5.023805E7,0E0,6.094496E6,7.727653E6,4.63308E6,2.1182712E7,1.411337E7,4.24512E6,9.717836E6,0E0,0E0,0E0,1.55877E5,2.67776E6,1.3106552E6,9.186974E6,0E0,0E0,1.0981575E7,0E0,0E0,2.8874166E5,4.671704E6,0E0,0E0,4.88224E5,0E0,0E0,0E0,4.293564E6,8.295095E5,2.5198408E6,0E0,0E0,0E0,0E0,4.794516E6,0E0,0E0,0E0,0E0,0E0,0E0,0E0,0E0,0E0,0E0],"parents":[2147483647,0,0,1,1,3,3,4,4,5,5,6,6,7,7,8,8,10,10,11,11,12,12,13,13,14,14,15,15,16,16,20,20,21,21,22,22,23,23,26,26,29,29,30,30,33,33,37,37,38,38,39,39,44,44],"right_children":[2,4,-1,6,8,10,12,14,16,-1,18,20,22,24,26,28,30,-1,-1,-1,32,34,36,38,-1,-1,40,-1,-1,42,44,-1,-1,46,-1,-1,-1,48,50,52,-1,-1,-1,-1,54,-1,-1,-1,-1,-1,-1,-1,-1,-1,-1],"split_conditions":[1.83E2,2.548E3,9.2881824E2,2.37E3,1.012E2,2.122E3,2E1,2.8E1,5.63E1,-2.5264883E2,1.38E2,2.385E3,5.6E3,5.25E3,9.63E1,3E0,3.045E3,-1.8361961E2,-1.5895458E1,-4.2893612E1,5.6E1,2.6E1,3.7E1,9.3E1,2.4909009E2,-1.1005942E2,2.695E3,1.2287912E2,3.3154315E2,8.6E1,8.5E1,9.94139E1,2.5081171E1,1E0,-6.3137657E1,-4.7426716E1,2.2728106E1,3E0,6.7E1,1.28E2,1.19954506E2,-1.4987344E1,1.7280643E1,1.2554267E1,5.83E1,-1.509208E2,-6.914008E1,2.0918877E1,1.8471896E2,6.117851E1,1.6347023E1,-4.2499825E1,2.8169199E1,2.0620764E2,7.0126625E1],"split_indices":[14,12,0,12,7,12,18,19,11,0,0,12,17,17,7,4,12,0,0,0,0,18,0,7,0,0,12,0,0,0,0,0,0,2,0,0,0,0,0,0,0,0,0,0,11,0,0,0,0,0,0,0,0,0,0],"split_type":[0,0,0,0,0,0,0,0,0,0,0,0,0,0,0,0,0,0,0,0,0,0,0,0,0,0,0,0,0,0,0,0,0,0,0,0,0,0,0,0,0,0,0,0,0,0,0,0,0,0,0,0,0,0,0],"sum_hessian":[1.59E2,1.5E2,9E0,9.8E1,5.2E1,7.3E1,2.5E1,2.7E1,2.5E1,3.6E1,3.7E1,5E0,2E1,1.6E1,1.1E1,1.5E1,1E1,3.6E1,1E0,2E0,3E0,1.8E1,2E0,1.1E1,5E0,3E0,8E0,2E0,1.3E1,2E0,8E0,2E0,1E0,1.3E1,5E0,1E0,1E0,4E0,7E0,6E0,2E0,1E0,1E0,1E0,7E0,1E1,3E0,1E0,3E0,3E0,4E0,4E0,2E0,4E0,3E0],"tree_param":{"num_deleted":"0","num_feature":"20","num_nodes":"55","size_leaf_vector":"1"}},{"base_weights":[2.4561469E2,-6.9374744E2,9.086247E2,-2.491585E3,3.0314436E3,-3.5889202E3,-1.0300729E3,-4.4511508E2,3.4559177E3,-2.3401117E2,-1.7395453E2,1.8160377E3,-1.4523516E3,7.660845E1,-1.0448611E3,2.141101E3,4.553883E3,2.0291307E1,1.226382E2,1.9380127E2,-1.8303152E3,-9.296135E1,-1.9207942E2,-1.4356796E2,2.6871152E3,5.2817686E3,2.239589E3,8.027183E1,-1.6075963E2,-2.0031687E3,4.5070737E2,-1.45377245E1,-2.7494237E0,4.1373862E2,-3.9181114E1,2.3213269E2,1.4729935E3,1.0676396E2,3.393004E2,1.2177627E1,2.5452004E3,-4.117787E1,1.1202914E1,-1.4052412E2,-8.4354095E1,-8.437207E-1,4.1407383E1,-1.8461895E1,5.5698368E1,1.7276079E2,4.5689224E1,1.6762236E1,1.7654953E2],"categories":[],"categories_nodes":[],"categories_segments":[],"categories_sizes":[],"default_left":[0,0,0,0,0,0,0,0,0,0,0,0,0,0,0,0,0,0,0,0,0,0,0,0,0,0,0,0,0,0,0,0,0,0,0,0,0,0,0,0,0,0,0,0,0,0,0,0,0,0,0,0,0],"id":6,"left_children":[1,3,-1,5,7,9,11,13,15,-1,-1,17,19,-1,21,23,25,-1,-1,27,29,-1,31,33,35,37,39,-1,41,43,45,-1,-1,47,-1,-1,49,-1,-1,-1,51,-1,-1,-1,-1,-1,-1,-1,-1,-1,-1,-1,-1],"loss_changes":[2.1237116E9,9.652653E8,0E0,1.5186867E8,7.089661E7,4.99456E5,5.431716E7,7.5303855E6,5.0881824E7,0E0,0E0,1.32985E6,2.3997784E7,0E0,1.8535195E6,2.6582488E7,2.5230944E7,0E0,0E0,3.460193E6,1.31256E7,0E0,1.0930234E4,1.6897798E6,1.8692832E7,1.085296E7,3.84034E6,0E0,1.4064214E6,2.577288E6,3.4352375E5,0E0,0E0,1.3993221E6,0E0,0E0,7.813706E6,0E0,0E0,0E0,4.579132E6,0E0,0E0,0E0,0E0,0E0,0E0,0E0,0E0,0E0,0E0,0E0,0E0],"parents":[2147483647,0,0,1,1,3,3,4,4,5,5,6,6,7,7,8,8,11,11,12,12,14,14,15,15,16,16,19,19,20,20,22,22,23,23,24,24,25,25,26,26,28,28,29,29,30,30,33,33,36,36,40,40],"right_children":[2,4,-1,6,8,10,12,14,16,-1,-1,18,20,-1,22,24,26,-1,-1,28,30,-1,32,34,36,38,40,-1,42,44,46,-1,-1,48,-1,-1,50,-1,-1,-1,52,-1,-1,-1,-1,-1,-1,-1,-1,-1,-1,-1,-1],"split_conditions":[1.83E2,2.67E3,9.086247E2,2.293E3,1.21E2,9.8E1,1.1E1,4E0,1.012E2,-2.3401117E2,-1.7395453E2,3E0,2.9E1,7.660845E1,9.61E1,2.734E3,5.63E1,2.0291307E1,1.226382E2,1E0,6.69E1,-9.296135E1,8.6E1,1.04E2,1.56E2,3E0,8.5E1,8.027183E1,2.385E3,2.6E1,1.33E2,-1.45377245E1,-2.7494237E0,1E0,-3.9181114E1,2.3213269E2,9.3E1,1.0676396E2,3.393004E2,1.2177627E1,1E0,-4.117787E1,1.1202914E1,-1.4052412E2,-8.4354095E1,-8.437207E-1,4.1407383E1,-1.8461895E1,5.5698368E1,1.7276079E2,4.5689224E1,1.6762236E1,1.7654953E2],"split_indices":[14,12,0,12,14,14,0,8,7,0,0,0,19,0,7,12,11,0,0,8,10,0,0,0,14,4,0,0,12,18,0,0,0,3,0,0,7,0,0,0,2,0,0,0,0,0,0,0,0,0,0,0,0],"split_type":[0,0,0,0,0,0,0,0,0,0,0,0,0,0,0,0,0,0,0,0,0,0,0,0,0,0,0,0,0,0,0,0,0,0,0,0,0,0,0,0,0,0,0,0,0,0,0,0,0,0,0,0,0],"sum_hessian":[1.5E2,1.42E2,8E0,9.6E1,4.6E1,5.4E1,4.2E1,5E0,4.1E1,3.4E1,2E1,5E0,3.7E1,1E0,4E0,2E1,2.1E1,1E0,4E0,7E0,3E1,2E0,2E0,4E0,1.6E1,1.5E1,6E0,1E0,6E0,2.8E1,2E0,1E0,1E0,2E0,2E0,7E0,9E0,2E0,1.3E1,1E0,5E0,2E0,4E0,1.6E1,1.2E1,1E0,1E0,1E0,1E0,2E0,7E0,1E0,4E0],"tree_param":{"num_deleted":"0","num_feature":"20","num_nodes":"53","size_leaf_vector":"1"}},{"base_weights":[-8.426536E1,-2.548582E3,4.52648E3,-3.4398713E3,-1.2146312E3,2.8412822E3,1.3861208E4,-7.752715E2,-3.5183875E3,1.1675154E2,-1.5985212E3,-8.9242905E1,3.0667202E3,3.5922772E2,9.292828E2,-5.9574463E1,-1.019997E1,-2.4672934E2,-1.8585979E2,4.595853E2,-1.9242825E3,2.672988E3,3.1082886E2,-3.9530758E1,7.101074E1,-1.3689919E2,-1.1087461E3,4.0248953E3,2.0881892E3,-1.1936259E3,-5.252051E0,1.0059375E1,2.636312E2,1.6620186E3,2.3319832E2,-7.5097015E1,-1.8411474E1,3.1432928E1,1.1863592E2],"categories":[],"categories_nodes":[],"categories_segments":[],"categories_sizes":[],"default_left":[0,0,0,0,0,0,0,0,0,0,0,0,0,0,0,0,0,0,0,0,0,0,0,0,0,0,0,0,0,0,0,0,0,0,0,0,0,0,0],"id":7,"left_children":[1,3,5,7,9,11,13,15,17,-1,19,-1,21,-1,-1,-1,-1,-1,-1,23,25,27,-1,-1,-1,-1,29,31,33,35,-1,-1,-1,37,-1,-1,-1,-1,-1],"loss_changes":[1.761336E9,1.1590432E8,8.100831E8,9.825152E6,5.406827E7,5.042611E7,9.750016E6,2.263935E5,1.75104E6,0E0,2.6361528E7,0E0,2.360416E7,0E0,0E0,0E0,0E0,0E0,0E0,5.637729E6,7.088032E6,2.3218976E7,0E0,0E0,0E0,0E0,9.35679E5,1.4918128E7,1.6533736E7,1.81602E5,0E0,0E0,0E0,8.292784E6,0E0,0E0,0E0,0E0,0E0],"parents":[2147483647,0,0,1,1,2,2,3,3,4,4,5,5,6,6,7,7,8,8,10,10,12,12,19,19,20,20,21,21,26,26,27,27,28,28,29,29,33,33],"right_children":[2,4,6,8,10,12,14,16,18,-1,20,-1,22,-1,-1,-1,-1,-1,-1,24,26,28,-1,-1,-1,-1,30,32,34,36,-1,-1,-1,38,-1,-1,-1,-1,-1],"split_conditions":[2.67E3,2.293E3,1.83E2,3E1,1.1E1,1.2E2,1.8E1,1.15E2,1.971E3,1.1675154E2,9.8E1,-8.9242905E1,1.4E2,3.5922772E2,9.292828E2,-5.9574463E1,-1.019997E1,-2.4672934E2,-1.8585979E2,5.5E1,6.57E1,6.1E1,3.1082886E2,-3.9530758E1,7.101074E1,-1.3689919E2,1.817E2,9.6E1,5.5E3,1.21E2,-5.252051E0,1.0059375E1,2.636312E2,2.921E3,2.3319832E2,-7.5097015E1,-1.8411474E1,3.1432928E1,1.1863592E2],"split_indices":[12,12,14,19,0,14,0,0,12,0,14,0,0,0,0,0,0,0,0,0,10,0,0,0,0,0,9,7,17,0,0,0,0,12,0,0,0,0,0],"split_type":[0,0,0,0,0,0,0,0,0,0,0,0,0,0,0,0,0,0,0,0,0,0,0,0,0,0,0,0,0,0,0,0,0,0,0,0,0,0,0],"sum_hessian":[1.53E2,1E2,5.3E1,5.9E1,4.1E1,4.6E1,7E0,2E0,5.7E1,4E0,3.7E1,2E0,4.4E1,2E0,5E0,1E0,1E0,2E1,3.7E1,5E0,3.2E1,3.9E1,5E0,2E0,3E0,2.1E1,1.1E1,1E1,2.9E1,1E1,1E0,1E0,9E0,2.5E1,4E0,9E0,1E0,6E0,1.9E1],"tree_param":{"num_deleted":"0","num_feature":"20","num_nodes":"39","size_leaf_vector":"1"}},{"base_weights":[2.6283459E1,-1.0366748E3,1.0046584E4,-2.6154595E3,1.7806873E3,5.7114023E3,8.924955E2,-2.9927686E3,-1.1472932E3,1.1353012E2,2.3332527E3,9.911359E1,3.9811664E2,-3.2629749E3,-1.8385212E3,1.0188574E2,-1.399709E3,1.560708E3,-7.03072E2,-4.535851E2,2.7973743E3,-2.3704652E2,-1.7152618E2,-1.1677723E2,-9.893965E0,-1.15291855E2,-5.357735E1,1.618002E1,1.0896309E2,-6.735303E1,-8.885295E1,7.075113E1,-1.0159764E3,1.3990382E3,3.396628E3,-2.0063354E1,3.8034843E1,-8.567318E1,-1.5924454E1,1.4124535E2,5.169964E2,1.1338444E3,2.1450838E2,6.779297E0,3.9360115E1,9.758463E1,4.461357E0],"categories":[],"categories_nodes":[],"categories_segments":[],"categories_sizes":[],"default_left":[0,0,0,0,0,0,0,0,0,0,0,0,0,0,0,0,0,0,0,0,0,0,0,0,0,0,0,0,0,0,0,0,0,0,0,0,0,0,0,0,0,0,0,0,0,0,0],"id":8,"left_children":[1,3,5,7,9,11,-1,13,15,17,19,-1,-1,21,23,-1,25,27,29,31,33,-1,-1,-1,-1,-1,-1,-1,-1,35,-1,-1,37,39,41,-1,-1,-1,-1,-1,43,45,-1,-1,-1,-1,-1],"loss_changes":[1.5548333E9,5.917944E8,2.0808768E8,4.365229E7,4.3953344E7,2.2793536E7,0E0,1.489728E7,1.602304E7,1.6460282E7,4.78324E7,0E0,0E0,3.44032E6,2.384448E6,0E0,3.043988E6,1.158566E6,4.350479E6,6.70756E6,2.1224656E7,0E0,0E0,0E0,0E0,0E0,0E0,0E0,0E0,1.3355564E6,0E0,0E0,1.166862E6,8.049286E6,4.428976E6,0E0,0E0,0E0,0E0,0E0,3.18995E5,1.4446712E6,0E0,0E0,0E0,0E0,0E0],"parents":[2147483647,0,0,1,1,2,2,3,3,4,4,5,5,7,7,8,8,9,9,10,10,13,13,14,14,16,16,17,17,18,18,19,19,20,20,29,29,32,32,33,33,34,34,40,40,41,41],"right_children":[2,4,6,8,10,12,-1,14,16,18,20,-1,-1,22,24,-1,26,28,30,32,34,-1,-1,-1,-1,-1,-1,-1,-1,36,-1,-1,38,40,42,-1,-1,-1,-1,-1,44,46,-1,-1,-1,-1,-1],"split_conditions":[6.89E1,2.5E3,1.94E2,2.37E3,2.7E3,2.975E3,8.924955E2,9E1,1.1E1,5.6E1,1.21E2,9.911359E1,3.9811664E2,9.45E1,1.33E2,1.0188574E2,6.55E1,3E0,1.22E2,4E0,2E0,-2.3704652E2,-1.7152618E2,-1.1677723E2,-9.893965E0,-1.15291855E2,-5.357735E1,1.618002E1,1.0896309E2,1.1E2,-8.885295E1,7.075113E1,9.61E1,1.4E2,7.5E0,-2.0063354E1,3.8034843E1,-8.567318E1,-1.5924454E1,1.4124535E2,2.844E3,8.9E1,2.1450838E2,6.779297E0,3.9360115E1,9.758463E1,4.461357E0],"split_indices":[10,12,14,12,12,12,0,16,0,0,14,0,0,7,0,0,10,0,14,8,5,0,0,0,0,0,0,0,0,0,0,0,7,14,15,0,0,0,0,0,12,0,0,0,0,0,0],"split_type":[0,0,0,0,0,0,0,0,0,0,0,0,0,0,0,0,0,0,0,0,0,0,0,0,0,0,0,0,0,0,0,0,0,0,0,0,0,0,0,0,0,0,0,0,0,0,0],"sum_hessian":[1.44E2,1.31E2,1.3E1,8.4E1,4.7E1,8E0,5E0,6.6E1,1.8E1,1.2E1,3.5E1,2E0,6E0,5.2E1,1.4E1,1E0,1.7E1,4E0,8E0,5E0,3E1,1.6E1,3.6E1,1.3E1,1E0,7E0,1E1,1E0,3E0,5E0,3E0,1E0,4E0,1E1,2E1,4E0,1E0,2E0,2E0,4E0,6E0,2E0,1.8E1,2E0,4E0,1E0,1E0],"tree_param":{"num_deleted":"0","num_feature":"20","num_nodes":"47","size_leaf_vector":"1"}},{"base_weights":[3.2426743E2,-5.922142E2,7.87355E2,-2.440598E3,2.396704E3,-2.8625898E3,-1.0636854E3,1.1973665E3,3.551695E3,-3.0567092E3,-1.6141105E3,-1.5100985E3,1.3226985E3,-4.5855328E2,1.882662E3,4.6090454E3,1.5947269E3,-2.1667627E2,-1.5889836E2,-1.743531E3,-9.597158E0,-1.8999454E3,-8.658303E2,1.1419576E2,-1.2569824E1,-9.250333E1,3.3998486E2,1.1437794E3,2.0496548E2,1.021117E2,4.8832124E3,-2.7240015E2,2.3289497E3,-1.2472629E2,-5.9552166E1,-3.3594666E1,-1.1867746E2,-1.2558516E1,-9.2173193E2,8.233457E1,4.8847088E1,1.6156445E2,1.7806377E3,8.081675E1,3.0237552E2,-2.596869E1,6.2650194E0,1.817959E0,2.6529998E3,-5.8561092E1,-1.6251825E1,-1.2271802E1,3.6893787E1,4.511913E1,-5.257953E1,3.4117054E1,1.5819182E2,1.8352373E2,6.5587497E0],"categories":[],"categories_nodes":[],"categories_segments":[],"categories_sizes":[],"default_left":[0,0,0,0,0,0,0,0,0,0,0,0,0,0,0,0,0,0,0,0,0,0,0,0,0,0,0,0,0,0,0,0,0,0,0,0,0,0,0,0,0,0,0,0,0,0,0,0,0,0,0,0,0,0,0,0,0,0,0],"id":9,"left_children":[1,3,-1,5,7,9,11,13,15,17,19,21,23,25,27,29,31,-1,-1,33,-1,35,37,-1,-1,-1,39,41,-1,-1,43,45,47,-1,-1,-1,-1,-1,49,51,-1,53,55,-1,-1,-1,-1,-1,57,-1,-1,-1,-1,-1,-1,-1,-1,-1,-1],"loss_changes":[1.7554551E9,7.7930285E8,0E0,4.750611E7,7.054944E7,1.1061504E7,2.5434296E7,3.263754E7,4.851824E7,3.119456E6,1.791294E6,3.12712E6,3.95688E6,8.308727E6,1.8753232E7,5.23936E6,1.5714162E7,0E0,0E0,4.54382E5,0E0,4.2452E4,1.37379E5,0E0,0E0,0E0,6.659334E5,9.09529E6,0E0,0E0,1.506944E6,2.869759E5,5.878644E6,0E0,0E0,0E0,0E0,0E0,1.8298E4,8.896306E5,0E0,4.9485295E6,7.837052E6,0E0,0E0,0E0,0E0,0E0,6.889976E6,0E0,0E0,0E0,0E0,0E0,0E0,0E0,0E0,0E0,0E0],"parents":[2147483647,0,0,1,1,3,3,4,4,5,5,6,6,7,7,8,8,9,9,10,10,11,11,12,12,13,13,14,14,15,15,16,16,19,19,21,21,22,22,26,26,27,27,30,30,31,31,32,32,38,38,39,39,41,41,42,42,48,48],"right_children":[2,4,-1,6,8,10,12,14,16,18,20,22,24,26,28,30,32,-1,-1,34,-1,36,38,-1,-1,-1,40,42,-1,-1,44,46,48,-1,-1,-1,-1,-1,50,52,-1,54,56,-1,-1,-1,-1,-1,58,-1,-1,-1,-1,-1,-1,-1,-1,-1,-1],"split_conditions":[1.83E2,2.548E3,7.87355E2,2.37E3,1.012E2,9E1,5.6E3,1.11E2,5.6E1,9.45E1,1.33E2,2.6E1,8E0,9.63E1,5.25E3,3E0,3.045E3,-2.1667627E2,-1.5889836E2,8.8E0,-9.597158E0,4.96E1,5.4E1,1.1419576E2,-1.2569824E1,-9.250333E1,2.7E3,2.823E3,2.0496548E2,1.021117E2,6E0,4E0,8.5E1,-1.2472629E2,-5.9552166E1,-3.3594666E1,-1.1867746E2,-1.2558516E1,1.21E2,1.33E2,4.8847088E1,9.1E1,2E0,8.081675E1,3.0237552E2,-2.596869E1,6.2650194E0,1.817959E0,5.83E1,-5.8561092E1,-1.6251825E1,-1.2271802E1,3.6893787E1,4.511913E1,-5.257953E1,3.4117054E1,1.5819182E2,1.8352373E2,6.5587497E0],"split_indices":[14,12,0,12,7,16,17,16,11,7,0,18,8,7,17,4,12,0,0,15,0,11,0,0,0,0,12,12,0,0,0,4,0,0,0,0,0,0,0,0,0,0,5,0,0,0,0,0,11,0,0,0,0,0,0,0,0,0,0],"split_type":[0,0,0,0,0,0,0,0,0,0,0,0,0,0,0,0,0,0,0,0,0,0,0,0,0,0,0,0,0,0,0,0,0,0,0,0,0,0,0,0,0,0,0,0,0,0,0,0,0,0,0,0,0,0,0,0,0,0,0],"sum_hessian":[1.48E2,1.39E2,9E0,8.6E1,5.3E1,6.5E1,2.1E1,2.7E1,2.6E1,5.5E1,1E1,1.8E1,3E0,8E0,1.9E1,1.6E1,1E1,2E1,3.5E1,9E0,1E0,1E1,8E0,2E0,1E0,3E0,5E0,1.4E1,5E0,2E0,1.4E1,3E0,7E0,5E0,4E0,1E0,9E0,1E0,7E0,4E0,1E0,6E0,8E0,1E0,1.3E1,2E0,1E0,1E0,6E0,6E0,1E0,3E0,1E0,4E0,2E0,4E0,4E0,5E0,1E0],"tree_param":{"num_deleted":"0","num_feature":"20","num_nodes":"59","size_leaf_vector":"1"}},{"base_weights":[4.6692444E1,-1.9678002E3,3.9167627E3,-2.7820254E3,-5.5023883E2,2.7717769E3,8.337765E2,-2.8225454E3,-9.3092575E0,9.581093E2,-1.2252365E3,2.1698777E3,5.072032E3,-1.9957268E2,-1.4580978E2,-7.373828E2,1.6052047E3,3.97558E1,-1.4101641E3,-7.854615E1,2.3933118E3,8.7485214E1,3.5377737E2,-5.0862144E1,-1.2192715E1,1.8566127E3,-1.2181758E1,-1.5090961E3,-2.1460808E2,1.5789965E3,3.00653E3,1.4341054E1,2.0535522E3,-1.6247227E3,-7.910213E2,-1.7880966E1,-1.4337597E0,1.8074418E3,-1.6571094E2,1.1725858E3,3.70875E3,1.3386432E2,2.9653008E1,-1.0925217E2,-5.573703E1,-8.4203615E0,-5.5116413E1,-3.4447735E1,1.202693E2,6.07708E0,-2.0991064E1,1.2760845E2,2.1932133E1,6.609141E1,2.294744E2],"categories":[],"categories_nodes":[],"categories_segments":[],"categories_sizes":[],"default_left":[0,0,0,0,0,0,0,0,0,0,0,0,0,0,0,0,0,0,0,0,0,0,0,0,0,0,0,0,0,0,0,0,0,0,0,0,0,0,0,0,0,0,0,0,0,0,0,0,0,0,0,0,0,0,0],"id":10,"left_children":[1,3,5,7,9,11,-1,13,-1,15,17,19,21,-1,-1,23,25,-1,27,-1,29,-1,-1,-1,-1,31,-1,33,35,37,39,-1,41,43,45,-1,-1,47,49,51,53,-1,-1,-1,-1,-1,-1,-1,-1,-1,-1,-1,-1,-1,-1],"loss_changes":[1.161549E9,1.1158224E8,5.442289E8,6.161376E6,3.884477E7,5.406685E7,0E0,3.972192E6,0E0,1.4349393E7,1.0011296E7,3.3448688E7,1.8212096E7,0E0,0E0,6.3455E4,4.468386E6,0E0,2.514824E6,0E0,1.3728752E7,0E0,0E0,0E0,0E0,2.057714E6,0E0,5.41436E5,4.059936E4,7.47378E6,2.1407808E7,0E0,8.35056E5,7.65028E5,2.861715E5,0E0,0E0,8.659324E6,1.8292838E5,4.613311E6,1.4832E4,0E0,0E0,0E0,0E0,0E0,0E0,0E0,0E0,0E0,0E0,0E0,0E0,0E0,0E0],"parents":[2147483647,0,0,1,1,2,2,3,3,4,4,5,5,7,7,9,9,10,10,11,11,12,12,15,15,16,16,18,18,20,20,25,25,27,27,28,28,29,29,30,30,32,32,33,33,34,34,37,37,38,38,39,39,40,40],"right_children":[2,4,6,8,10,12,-1,14,-1,16,18,20,22,-1,-1,24,26,-1,28,-1,30,-1,-1,-1,-1,32,-1,34,36,38,40,-1,42,44,46,-1,-1,48,50,52,54,-1,-1,-1,-1,-1,-1,-1,-1,-1,-1,-1,-1,-1,-1],"split_conditions":[2.7E3,2.37E3,1.94E2,1.38E2,5.6E1,6.89E1,8.337765E2,9.7E1,-9.3092575E0,2.385E3,9.8E1,1.2E2,2.975E3,-1.9957268E2,-1.4580978E2,5.4E1,1.778E2,3.97558E1,1.817E2,-7.854615E1,1.2E2,8.7485214E1,3.5377737E2,-5.0862144E1,-1.2192715E1,3E0,-1.2181758E1,1E0,1.04E2,1.25E2,2E0,1.4341054E1,2.4E1,2.6E1,1E0,-1.7880966E1,-1.4337597E0,5.24E1,1.39E2,1.32E2,2E0,1.3386432E2,2.9653008E1,-1.0925217E2,-5.573703E1,-8.4203615E0,-5.5116413E1,-3.4447735E1,1.202693E2,6.07708E0,-2.0991064E1,1.2760845E2,2.1932133E1,6.609141E1,2.294744E2],"split_indices":[12,12,14,0,0,10,0,14,0,12,14,14,12,0,0,0,9,0,9,0,16,0,0,0,0,0,0,2,0,0,5,0,18,18,5,0,0,11,0,14,0,0,0,0,0,0,0,0,0,0,0,0,0,0,0],"split_type":[0,0,0,0,0,0,0,0,0,0,0,0,0,0,0,0,0,0,0,0,0,0,0,0,0,0,0,0,0,0,0,0,0,0,0,0,0,0,0,0,0,0,0,0,0,0,0,0,0,0,0,0,0,0,0],"sum_hessian":[1.47E2,9.7E1,5E1,6.1E1,3.6E1,4.6E1,4E0,6E1,1E0,1.1E1,2.5E1,3.8E1,8E0,2.3E1,3.7E1,3E0,8E0,2E0,2.3E1,2E0,3.6E1,2E0,6E0,2E0,1E0,7E0,1E0,2.1E1,2E0,1.7E1,1.9E1,1E0,6E0,1.7E1,4E0,1E0,1E0,1.5E1,2E0,6E0,1.3E1,5E0,1E0,1.2E1,5E0,1E0,3E0,1E0,1.4E1,1E0,1E0,2E0,4E0,1E0,1.2E1],"tree_param":{"num_deleted":"0","num_feature":"20","num_nodes":"55","size_leaf_vector":"1"}},{"base_weights":[-8.1219925E1,-1.8686118E3,3.3325505E3,-2.6504421E3,-9.21001E2,2.5117388E3,5.161293E2,-2.7512046E3,-1.0522701E3,1.2479666E3,-1.1415308E3,6.936872E1,2.8509214E3,-4.7502598E1,-2.773662E3,-7.440527E1,-9.02997E0,1.391083E1,8.6642075E1,3.9559537E2,-1.3435614E3,-7.540432E1,8.5115936E2,4.0672334E3,2.409332E3,-1.6779567E2,-4.8123074E1,-3.4042576E1,6.1135517E1,-1.7111986E3,-7.455111E2,1.0482597E2,-1.9710037E1,1.06862755E2,4.792593E3,1.6549415E3,3.3688225E3,-2.1303762E3,-7.1558075E1,-1.6420691E2,-1.1360033E3,7.8795616E1,3.0921628E2,1.8577046E2,8.720367E2,4.147231E3,1.6397391E3,-1.3983527E2,-4.5172733E1,2.8763407E1,-1.9478018E1,-2.4269003E1,-8.350371E1,-2.0057308E1,8.046541E1,2.6738535E2,5.0211006E1,-1.8446777E0,1.1879908E2],"categories":[],"categories_nodes":[],"categories_segments":[],"categories_sizes":[],"default_left":[0,0,0,0,0,0,0,0,0,0,0,0,0,0,0,0,0,0,0,0,0,0,0,0,0,0,0,0,0,0,0,0,0,0,0,0,0,0,0,0,0,0,0,0,0,0,0,0,0,0,0,0,0,0,0,0,0,0,0],"id":11,"left_children":[1,3,5,7,9,11,-1,13,15,17,19,21,23,-1,25,-1,-1,-1,-1,27,29,-1,31,33,35,-1,-1,-1,-1,37,39,-1,-1,-1,41,43,45,47,-1,49,51,-1,-1,-1,53,55,57,-1,-1,-1,-1,-1,-1,-1,-1,-1,-1,-1,-1],"loss_changes":[9.764048E8,7.53504E7,2.16288E8,6.284032E6,2.486236E7,4.0394336E7,0E0,1.3632E5,6.6021E5,6.61348E5,1.4506108E7,8.326853E6,1.3296416E7,0E0,1.08096E5,0E0,0E0,0E0,0E0,4.1796082E6,7.518896E6,0E0,5.8584475E6,8.047248E6,1.903504E7,0E0,0E0,0E0,0E0,2.676136E6,3.67237E6,0E0,0E0,0E0,2.02456E6,2.0995332E7,1.2042672E7,1.55484E6,0E0,9.816276E5,1.30775E6,0E0,0E0,0E0,8.935777E6,5.482528E6,3.471123E6,0E0,0E0,0E0,0E0,0E0,0E0,0E0,0E0,0E0,0E0,0E0,0E0],"parents":[2147483647,0,0,1,1,2,2,3,3,4,4,5,5,7,7,8,8,9,9,10,10,11,11,12,12,14,14,19,19,20,20,22,22,23,23,24,24,29,29,30,30,34,34,35,35,36,36,37,37,39,39,40,40,44,44,45,45,46,46],"right_children":[2,4,6,8,10,12,-1,14,16,18,20,22,24,-1,26,-1,-1,-1,-1,28,30,-1,32,34,36,-1,-1,-1,-1,38,40,-1,-1,-1,42,44,46,48,-1,50,52,-1,-1,-1,54,56,58,-1,-1,-1,-1,-1,-1,-1,-1,-1,-1,-1,-1],"split_conditions":[2.7E3,2.293E3,1.83E2,1.22E2,1E1,1.21E2,5.161293E2,2E0,1.38E2,3E0,9.8E1,9.61E1,1.6E1,-4.7502598E1,1.06E2,-7.440527E1,-9.02997E0,1.391083E1,8.6642075E1,5.5E1,2.425E3,-7.540432E1,9.7E1,6E0,6.79E1,-1.6779567E2,-4.8123074E1,-3.4042576E1,6.1135517E1,5.1E3,1.22E2,1.0482597E2,-1.9710037E1,1.06862755E2,3E0,1.36E2,5.56E1,1.762E2,-7.1558075E1,4E1,2.46E3,7.8795616E1,3.0921628E2,1.8577046E2,2.921E3,2.8E1,8.5E1,-1.3983527E2,-4.5172733E1,2.8763407E1,-1.9478018E1,-2.4269003E1,-8.350371E1,-2.0057308E1,8.046541E1,2.6738535E2,5.0211006E1,-1.8446777E0,1.1879908E2],"split_indices":[12,12,14,0,0,14,0,4,0,0,14,7,0,0,16,0,0,0,0,0,12,0,16,0,10,0,0,0,0,17,14,0,0,0,4,14,11,9,0,0,12,0,0,0,12,19,0,0,0,0,0,0,0,0,0,0,0,0,0],"split_type":[0,0,0,0,0,0,0,0,0,0,0,0,0,0,0,0,0,0,0,0,0,0,0,0,0,0,0,0,0,0,0,0,0,0,0,0,0,0,0,0,0,0,0,0,0,0,0,0,0,0,0,0,0,0,0,0,0,0,0],"sum_hessian":[1.58E2,1.04E2,5.4E1,5.6E1,4.8E1,4.8E1,6E0,5.2E1,4E0,4E0,4.4E1,6E0,4.2E1,1E0,5.1E1,3E0,1E0,1E0,3E0,5E0,3.9E1,2E0,4E0,9E0,3.3E1,5E1,1E0,2E0,3E0,2.3E1,1.6E1,2E0,2E0,3E0,6E0,2E1,1.3E1,1.1E1,1.2E1,7E0,9E0,1E0,5E0,6E0,1.4E1,8E0,5E0,9E0,2E0,1E0,6E0,3E0,6E0,4E0,1E1,7E0,1E0,1E0,4E0],"tree_param":{"num_deleted":"0","num_feature":"20","num_nodes":"59","size_leaf_vector":"1"}},{"base_weights":[1.0343536E2,-1.671854E3,3.5837446E3,-2.2874546E3,-4.28063E2,2.413522E3,5.343984E2,-2.3419214E3,4.085496E1,1.0871799E3,-9.943848E2,-1.2064691E3,2.614628E3,-2.498209E3,-1.4174196E3,-6.739927E2,1.9382529E3,3.572014E1,-1.1516671E3,-2.2881416E1,-8.57008E1,3.8267305E3,2.1162605E3,-1.5380466E2,-7.922798E1,-9.521787E1,-2.2787773E1,-4.671564E1,-1.0805655E1,1.2637753E2,2.7900497E1,-1.4636531E3,-6.498971E2,1.0205395E2,4.4113047E3,1.3610009E3,3.26161E3,-1.6065674E3,-4.0411166E2,-4.2731922E1,-8.0642575E-1,7.643174E1,2.8065182E2,7.1147125E2,1.5350528E2,3.5443408E3,1.2319707E3,-1.0175871E2,-1.8691319E1,-2.8786612E1,-7.5834374E0,1.2090003E2,2.1355692E1,5.618168E1,2.2380457E2,-1.7893358E0,1.12666695E2],"categories":[],"categories_nodes":[],"categories_segments":[],"categories_sizes":[],"default_left":[0,0,0,0,0,0,0,0,0,0,0,0,0,0,0,0,0,0,0,0,0,0,0,0,0,0,0,0,0,0,0,0,0,0,0,0,0,0,0,0,0,0,0,0,0,0,0,0,0,0,0,0,0,0,0,0,0],"id":12,"left_children":[1,3,5,7,9,11,-1,13,-1,15,17,19,21,23,25,27,29,-1,31,-1,-1,33,35,-1,-1,-1,-1,-1,-1,-1,-1,37,39,-1,41,43,45,47,49,-1,-1,-1,-1,51,-1,53,55,-1,-1,-1,-1,-1,-1,-1,-1,-1,-1],"loss_changes":[9.513106E8,7.712E7,3.0241018E8,1.2588768E7,3.1115104E7,3.518653E7,0E0,6.13968E6,0E0,1.6295233E7,7.186538E6,4.5115E3,1.7272704E7,9.15392E5,1.508366E6,6.64295E4,7.53496E5,0E0,2.805862E6,0E0,0E0,6.166608E6,2.3242096E7,0E0,0E0,0E0,0E0,0E0,0E0,0E0,0E0,1.470696E6,4.266035E5,0E0,7.23616E5,1.451272E7,2.519576E6,8.61166E5,2.4021875E3,0E0,0E0,0E0,0E0,6.2347165E6,0E0,1.351248E6,2.500626E6,0E0,0E0,0E0,0E0,0E0,0E0,0E0,0E0,0E0,0E0],"parents":[2147483647,0,0,1,1,2,2,3,3,4,4,5,5,7,7,9,9,10,10,11,11,12,12,13,13,14,14,15,15,16,16,18,18,21,21,22,22,31,31,32,32,34,34,35,35,36,36,37,37,38,38,43,43,45,45,46,46],"right_children":[2,4,6,8,10,12,-1,14,-1,16,18,20,22,24,26,28,30,-1,32,-1,-1,34,36,-1,-1,-1,-1,-1,-1,-1,-1,38,40,-1,42,44,46,48,50,-1,-1,-1,-1,52,-1,54,56,-1,-1,-1,-1,-1,-1,-1,-1,-1,-1],"split_conditions":[2.7E3,2.37E3,1.83E2,1.762E2,5.6E1,1.2E2,5.343984E2,9E1,4.085496E1,2.385E3,9.8E1,4.6E1,6.1E1,1.22E2,1.16E2,5.4E1,2.4E1,3.572014E1,9.88E1,-2.2881416E1,-8.57008E1,6E0,6.79E1,-1.5380466E2,-7.922798E1,-9.521787E1,-2.2787773E1,-4.671564E1,-1.0805655E1,1.2637753E2,2.7900497E1,1E0,1.26E2,1.0205395E2,3E0,1.6E2,2.6E1,1.27E2,6.7E1,-4.2731922E1,-8.0642575E-1,7.643174E1,2.8065182E2,1E0,1.5350528E2,6.3E1,8.5E1,-1.0175871E2,-1.8691319E1,-2.8786612E1,-7.5834374E0,1.2090003E2,2.1355692E1,5.618168E1,2.2380457E2,-1.7893358E0,1.12666695E2],"split_indices":[12,12,14,9,0,14,0,16,0,12,14,0,0,0,0,0,18,0,7,0,0,0,10,0,0,0,0,0,0,0,0,2,0,0,4,16,18,0,0,0,0,0,0,4,0,0,0,0,0,0,0,0,0,0,0,0,0],"split_type":[0,0,0,0,0,0,0,0,0,0,0,0,0,0,0,0,0,0,0,0,0,0,0,0,0,0,0,0,0,0,0,0,0,0,0,0,0,0,0,0,0,0,0,0,0,0,0,0,0,0,0,0,0,0,0,0,0],"sum_hessian":[1.52E2,1.01E2,5.1E1,6.7E1,3.4E1,4.3E1,8E0,6.6E1,1E0,9E0,2.5E1,2E0,4.1E1,5.5E1,1.1E1,3E0,6E0,2E0,2.3E1,1E0,1E0,1E1,3.1E1,5.1E1,4E0,9E0,2E0,2E0,1E0,5E0,1E0,1.3E1,1E1,3E0,7E0,2E1,1.1E1,1.1E1,2E0,9E0,1E0,1E0,6E0,1.4E1,6E0,9E0,2E0,1E1,1E0,1E0,1E0,2E0,1.2E1,1E0,8E0,1E0,1E0],"tree_param":{"num_deleted":"0","num_feature":"20","num_nodes":"57","size_leaf_vector":"1"}},{"base_weights":[6.6611084E1,-5.6565027E2,1.0877903E4,-1.6685846E3,1.9807874E3,1.7544562E2,6.903971E2,-2.3443276E3,-7.750657E2,1.6181954E3,3.82157E3,-2.69718E3,-1.8321383E3,9.856835E1,-1.0322086E3,8.073016E2,2.1048755E3,7.432716E1,2.764156E2,-1.9753009E3,-3.0011458E3,-1.13401535E2,-8.075419E0,6.6901874E2,-1.2190569E3,-3.6889393E1,1.1559586E3,1.4528447E3,3.308835E3,-1.4390595E1,-1.2599613E2,-4.1463367E1,-1.8469455E2,-1.0481484E1,5.541715E1,-1.5848795E3,-7.739902E2,4.1891797E2,2.0688596E3,5.0143008E2,1.4091269E2,5.784117E1,2.103655E2,-1.2287253E2,-5.8668217E1,7.5420995E0,-5.6409214E1,6.499846E1,-5.6296873E0,1.4965216E2,-1.735664E0,1.9488281E-1,4.286836E1],"categories":[],"categories_nodes":[],"categories_segments":[],"categories_sizes":[],"default_left":[0,0,0,0,0,0,0,0,0,0,0,0,0,0,0,0,0,0,0,0,0,0,0,0,0,0,0,0,0,0,0,0,0,0,0,0,0,0,0,0,0,0,0,0,0,0,0,0,0,0,0,0,0],"id":13,"left_children":[1,3,5,7,9,-1,-1,11,13,15,17,19,21,-1,23,25,27,-1,-1,29,31,-1,-1,33,35,-1,37,39,41,-1,-1,-1,-1,-1,-1,43,45,47,49,51,-1,-1,-1,-1,-1,-1,-1,-1,-1,-1,-1,-1,-1],"loss_changes":[1.1135141E9,4.358224E8,1.1359616E7,6.3392224E7,2.5186256E7,0E0,0E0,6.08272E6,3.1539174E7,1.4481216E7,8.491848E6,1.532352E6,2.497088E6,0E0,1.4801916E7,9.139884E6,1.481824E7,0E0,0E0,2.308216E6,1.790976E6,0E0,0E0,1.235393E6,5.285936E6,0E0,8.553148E6,1.4161652E7,3.20296E5,0E0,0E0,0E0,0E0,0E0,0E0,3.900128E6,3.108096E6,3.1676135E6,5.425828E6,1.0590192E6,0E0,0E0,0E0,0E0,0E0,0E0,0E0,0E0,0E0,0E0,0E0,0E0,0E0],"parents":[2147483647,0,0,1,1,2,2,3,3,4,4,7,7,8,8,9,9,10,10,11,11,12,12,14,14,15,15,16,16,19,19,20,20,23,23,24,24,26,26,27,27,28,28,35,35,36,36,37,37,38,38,39,39],"right_children":[2,4,6,8,10,-1,-1,12,14,16,18,20,22,-1,24,26,28,-1,-1,30,32,-1,-1,34,36,-1,38,40,42,-1,-1,-1,-1,-1,-1,44,46,48,50,52,-1,-1,-1,-1,-1,-1,-1,-1,-1,-1,-1,-1,-1],"split_conditions":[1.83E2,2.67E3,1.8E1,2.293E3,6.88E1,1.7544562E2,6.903971E2,2.122E3,1.1E1,1.2E2,2.975E3,1E0,1.38E2,9.856835E1,9.8E1,5.24E1,2.6E1,7.432716E1,2.764156E2,1.569E2,2E0,-1.13401535E2,-8.075419E0,5.5E1,1.75E2,-3.6889393E1,2.9E1,6.66E1,2E0,-1.4390595E1,-1.2599613E2,-4.1463367E1,-1.8469455E2,-1.0481484E1,5.541715E1,9E1,2.9E1,9.7E1,9E0,2.844E3,1.4091269E2,5.784117E1,2.103655E2,-1.2287253E2,-5.8668217E1,7.5420995E0,-5.6409214E1,6.499846E1,-5.6296873E0,1.4965216E2,-1.735664E0,1.9488281E-1,4.286836E1],"split_indices":[14,12,0,12,10,0,0,12,0,16,12,3,0,0,14,11,19,0,0,9,4,0,0,0,9,0,19,10,0,0,0,0,0,0,0,16,19,16,8,12,0,0,0,0,0,0,0,0,0,0,0,0,0],"split_type":[0,0,0,0,0,0,0,0,0,0,0,0,0,0,0,0,0,0,0,0,0,0,0,0,0,0,0,0,0,0,0,0,0,0,0,0,0,0,0,0,0,0,0,0,0,0,0,0,0,0,0,0,0],"sum_hessian":[1.61E2,1.53E2,8E0,1.07E2,4.6E1,1E0,7E0,6E1,4.7E1,4E1,6E0,3.3E1,2.7E1,4E0,4.3E1,1.6E1,2.4E1,2E0,4E0,1.2E1,2.1E1,2.6E1,1E0,4E0,3.9E1,3E0,1.3E1,1.7E1,7E0,1E0,1.1E1,1E0,2E1,1E0,3E0,2E1,1.9E1,8E0,5E0,9E0,8E0,1E0,6E0,1E1,1E1,3E0,1.6E1,3E0,5E0,4E0,1E0,3E0,6E0],"tree_param":{"num_deleted":"0","num_feature":"20","num_nodes":"53","size_leaf_vector":"1"}},{"base_weights":[2.44826E1,-1.537983E3,3.1176748E3,-2.1278833E3,-3.476477E2,2.0497166E3,5.080945E2,3.6672276E1,-2.1794263E3,8.090273E2,-9.3601514E2,-1.1573998E3,2.2343904E3,-1.5727022E2,-1.7965773E3,-6.2859033E2,1.3580765E3,1.3877734E2,-1.0449847E3,-2.108827E1,-8.3077705E1,9.1333594E2,2.4795093E3,-1.3958877E1,-1.8325579E3,-4.3509197E1,-1.0167041E1,1.5704735E3,-1.0232988E1,1.8085869E1,-5.595908E0,-1.448892E3,-6.849733E2,3.1015625E0,8.753137E1,2.6544766E3,1.2205825E3,-1.1514757E2,-5.368173E1,6.745107E0,1.7627073E3,-9.354423E1,-1.7023886E1,-7.807872E2,-1.0533138E2,5.845576E0,-3.6489258E0,9.171572E2,2.7491982E3,-9.47414E0,1.52786E3,1.1444376E2,2.6837227E1,-5.152591E1,-1.7195448E1,-1.0389873E1,9.100488E-1,2.5702147E0,7.997393E1,1.820785E2,1.0151635E2,1.9643984E1,1.33142E2],"categories":[],"categories_nodes":[],"categories_segments":[],"categories_sizes":[],"default_left":[0,0,0,0,0,0,0,0,0,0,0,0,0,0,0,0,0,0,0,0,0,0,0,0,0,0,0,0,0,0,0,0,0,0,0,0,0,0,0,0,0,0,0,0,0,0,0,0,0,0,0,0,0,0,0,0,0,0,0,0,0,0,0],"id":14,"left_children":[1,3,5,7,9,11,-1,-1,13,15,17,19,21,-1,23,25,27,29,31,-1,-1,33,35,-1,37,-1,-1,39,-1,-1,-1,41,43,45,-1,47,49,-1,-1,-1,51,-1,-1,53,55,-1,-1,57,59,-1,61,-1,-1,-1,-1,-1,-1,-1,-1,-1,-1,-1,-1],"loss_changes":[7.2008E8,6.877598E7,2.6835162E8,1.0649984E7,2.3895958E7,2.8053728E7,0E0,0E0,6.283744E6,1.0325548E7,2.838776E6,6.27335E4,1.1011808E7,0E0,1.711952E6,5.4465875E4,3.189924E6,1.413408E5,2.061184E6,0E0,0E0,3.9678855E6,4.2492E6,0E0,1.286968E6,0E0,0E0,2.044138E6,0E0,0E0,0E0,7.13024E5,6.39749E5,3.0040826E4,0E0,2.250848E6,2.782716E6,0E0,0E0,0E0,4.79134E5,0E0,0E0,1.777865E5,2.714793E4,0E0,0E0,1.03337675E6,3.01384E6,0E0,3.422121E6,0E0,0E0,0E0,0E0,0E0,0E0,0E0,0E0,0E0,0E0,0E0,0E0],"parents":[2147483647,0,0,1,1,2,2,3,3,4,4,5,5,8,8,9,9,10,10,11,11,12,12,14,14,15,15,16,16,17,17,18,18,21,21,22,22,24,24,27,27,31,31,32,32,33,33,35,35,36,36,40,40,43,43,44,44,47,47,48,48,50,50],"right_children":[2,4,6,8,10,12,-1,-1,14,16,18,20,22,-1,24,26,28,30,32,-1,-1,34,36,-1,38,-1,-1,40,-1,-1,-1,42,44,46,-1,48,50,-1,-1,-1,52,-1,-1,54,56,-1,-1,58,60,-1,62,-1,-1,-1,-1,-1,-1,-1,-1,-1,-1,-1,-1],"split_conditions":[2.7E3,2.37E3,1.83E2,5E0,5.6E1,1.2E2,5.080945E2,3.6672276E1,9.45E1,2.385E3,1.724E2,4.6E1,7.5E0,-1.5727022E2,1.569E2,5.4E1,1.778E2,6.1E1,6.57E1,-2.108827E1,-8.3077705E1,2.844E3,4E0,-1.3958877E1,9.4E1,-4.3509197E1,-1.0167041E1,3E0,-1.0232988E1,1.8085869E1,-5.595908E0,1.27E2,1.21E2,3.2E1,8.753137E1,2.3E1,8.6E1,-1.1514757E2,-5.368173E1,6.745107E0,2.4E1,-9.354423E1,-1.7023886E1,1.817E2,1.26E2,5.845576E0,-3.6489258E0,7.2E1,2.9E1,-9.47414E0,1E0,1.1444376E2,2.6837227E1,-5.152591E1,-1.7195448E1,-1.0389873E1,9.100488E-1,2.5702147E0,7.997393E1,1.820785E2,1.0151635E2,1.9643984E1,1.33142E2],"split_indices":[12,12,14,0,0,14,0,0,7,12,9,0,15,0,9,0,9,0,10,0,0,12,4,0,16,0,0,0,0,0,0,0,0,0,0,19,0,0,0,0,18,0,0,9,0,0,0,0,19,0,2,0,0,0,0,0,0,0,0,0,0,0,0],"split_type":[0,0,0,0,0,0,0,0,0,0,0,0,0,0,0,0,0,0,0,0,0,0,0,0,0,0,0,0,0,0,0,0,0,0,0,0,0,0,0,0,0,0,0,0,0,0,0,0,0,0,0,0,0,0,0,0,0,0,0,0,0,0,0],"sum_hessian":[1.47E2,9.8E1,4.9E1,6.5E1,3.3E1,4.2E1,7E0,1E0,6.4E1,1.1E1,2.2E1,2E0,4E1,2.7E1,3.7E1,3E0,8E0,2E0,2E1,1E0,1E0,7E0,3.3E1,1E0,3.6E1,2E0,1E0,7E0,1E0,1E0,1E0,8E0,1.2E1,3E0,4E0,2.8E1,5E0,3.2E1,4E0,1E0,6E0,7E0,1E0,1E1,2E0,1E0,2E0,2E0,2.6E1,1E0,4E0,5E0,1E0,8E0,2E0,1E0,1E0,1E0,1E0,1.9E1,7E0,2E0,2E0],"tree_param":{"num_deleted":"0","num_feature":"20","num_nodes":"63","size_leaf_vector":"1"}},{"base_weights":[1.4111592E2,-4.9445044E2,9.596943E3,-1.742997E3,1.6711199E3,2.1392593E2,6.3954846E2,-2.0758838E3,-7.7972485E2,8.315348E2,2.5110032E3,-2.187684E3,-4.5429348E1,2.3518066E2,-9.749432E2,1.7691052E2,1.8866554E3,4.0816167E3,1.49894E3,-1.5211331E2,-1.1753984E2,-3.0037655E1,5.355572E1,3.5572117E1,-1.0778328E3,1.5375979E3,-2.8844595E2,2.070996E3,7.0474805E2,9.95857E1,2.687766E2,5.553274E2,1.3189783E2,-1.1659258E3,-9.637949E0,6.5427537E0,1.1204846E2,-1.1730806E3,2.7117938E2,5.102799E1,2.2982236E3,-1.6096376E1,7.95237E1,8.8144885E2,1.1814043E2,-5.428037E0,-7.3238846E1,-2.0455635E1,-7.627955E1,6.511486E1,-4.079619E0,6.805462E1,1.7325887E2,5.670205E0,6.327356E1,-4.073291E0,2.5867645E1],"categories":[],"categories_nodes":[],"categories_segments":[],"categories_sizes":[],"default_left":[0,0,0,0,0,0,0,0,0,0,0,0,0,0,0,0,0,0,0,0,0,0,0,0,0,0,0,0,0,0,0,0,0,0,0,0,0,0,0,0,0,0,0,0,0,0,0,0,0,0,0,0,0,0,0,0,0],"id":15,"left_children":[1,3,5,7,9,-1,-1,11,13,15,17,19,-1,21,23,25,27,29,31,-1,-1,-1,-1,-1,33,35,37,39,41,-1,-1,43,-1,45,-1,-1,-1,47,49,-1,51,-1,-1,53,55,-1,-1,-1,-1,-1,-1,-1,-1,-1,-1,-1,-1],"loss_changes":[9.5429446E8,4.0578122E8,2.6062208E7,2.8844128E7,3.669544E7,0E0,0E0,8.663968E6,5.380619E6,1.9696748E7,3.6800016E7,1.20064E5,0E0,2.8655138E6,4.187864E6,1.2474403E7,9.3708E5,2.20376E6,1.0657828E7,0E0,0E0,0E0,0E0,0E0,1.509494E6,2.152588E6,7.744075E6,5.4148E5,2.1672752E6,0E0,0E0,1.1790492E6,0E0,1.007738E6,0E0,0E0,0E0,5.71015E4,2.8348905E6,0E0,1.527248E6,0E0,0E0,5.814835E5,3.2039116E5,0E0,0E0,0E0,0E0,0E0,0E0,0E0,0E0,0E0,0E0,0E0,0E0],"parents":[2147483647,0,0,1,1,2,2,3,3,4,4,7,7,8,8,9,9,10,10,11,11,13,13,14,14,15,15,16,16,17,17,18,18,24,24,25,25,26,26,27,27,28,28,31,31,33,33,37,37,38,38,40,40,43,43,44,44],"right_children":[2,4,6,8,10,-1,-1,12,14,16,18,20,-1,22,24,26,28,30,32,-1,-1,-1,-1,-1,34,36,38,40,42,-1,-1,44,-1,46,-1,-1,-1,48,50,-1,52,-1,-1,54,56,-1,-1,-1,-1,-1,-1,-1,-1,-1,-1,-1,-1],"split_conditions":[1.83E2,2.548E3,1.8E1,9E1,1.2E2,2.1392593E2,6.3954846E2,1.75E2,2.9E1,1.045E2,1.45E2,9.45E1,-4.5429348E1,2.385E3,5E0,1E0,5.75E1,8.1E0,1.6E2,-1.5211331E2,-1.1753984E2,-3.0037655E1,5.355572E1,3.5572117E1,1.24E2,3E0,9.88E1,4E0,8.7E1,9.95857E1,2.687766E2,6.7E1,1.3189783E2,1E0,-9.637949E0,6.5427537E0,1.1204846E2,4.6E1,1.803E2,5.102799E1,8.5E1,-1.6096376E1,7.95237E1,1E0,9.1E1,-5.428037E0,-7.3238846E1,-2.0455635E1,-7.627955E1,6.511486E1,-4.079619E0,6.805462E1,1.7325887E2,5.670205E0,6.327356E1,-4.073291E0,2.5867645E1],"split_indices":[14,12,0,16,16,0,0,9,19,7,16,7,0,12,0,4,11,15,16,0,0,0,0,0,0,0,7,8,0,0,0,0,0,5,0,0,0,0,9,0,0,0,0,8,0,0,0,0,0,0,0,0,0,0,0,0,0],"split_type":[0,0,0,0,0,0,0,0,0,0,0,0,0,0,0,0,0,0,0,0,0,0,0,0,0,0,0,0,0,0,0,0,0,0,0,0,0,0,0,0,0,0,0,0,0,0,0,0,0,0,0,0,0,0,0,0,0],"sum_hessian":[1.57E2,1.48E2,9E0,9.4E1,5.4E1,2E0,7E0,6.9E1,2.5E1,2.8E1,2.6E1,6.3E1,6E0,4E0,2.1E1,1.8E1,1E1,9E0,1.7E1,2.1E1,4.2E1,2E0,2E0,1E0,2E1,4E0,1.4E1,8E0,2E0,2E0,7E0,8E0,9E0,1.8E1,2E0,1E0,3E0,5E0,9E0,2E0,6E0,1E0,1E0,4E0,4E0,1E0,1.7E1,1E0,4E0,2E0,7E0,3E0,3E0,1E0,3E0,3E0,1E0],"tree_param":{"num_deleted":"0","num_feature":"20","num_nodes":"57","size_leaf_vector":"1"}},{"base_weights":[-1.964646E0,-5.9328546E2,8.808912E3,1.7191956E3,-1.5475862E3,2.5590808E2,6.0881635E2,9.444961E2,2.5227E3,-1.839971E3,-3.4757294E2,6.687965E2,1.5908765E2,2.8453396E3,4.40146E2,-2.0091318E3,-1.0451432E3,-6.320349E2,7.460047E2,3.9720517E2,1.07499374E2,2.1284113E2,1.7491771E3,-1.6213652E1,7.713799E1,-1.4416629E2,-1.7737522E3,-8.646623E1,-6.981552E2,3.9455664E2,-7.850186E2,1.0118341E2,-4.4304916E2,6.306662E2,-2.1373811E2,-5.3297524E0,2.251226E3,-2.6095926E1,-1.0760411E2,-2.433064E2,-5.029861E1,3.450495E1,1.0051465E0,-1.30329485E1,-8.5061786E2,-6.770742E0,-3.310368E1,5.1919765E1,1.634307E1,-2.8836132E1,2.3906689E0,2.509163E1,-2.5571308E1,1.5663464E2,5.4113922E1,-1.9841953E1,-6.2365427E0,-5.5927498E1,-2.482913E1],"categories":[],"categories_nodes":[],"categories_segments":[],"categories_sizes":[],"default_left":[0,0,0,0,0,0,0,0,0,0,0,0,0,0,0,0,0,0,0,0,0,0,0,0,0,0,0,0,0,0,0,0,0,0,0,0,0,0,0,0,0,0,0,0,0,0,0,0,0,0,0,0,0,0,0,0,0,0,0],"id":16,"left_children":[1,3,5,7,9,-1,-1,11,13,15,17,19,-1,21,23,25,27,29,31,33,-1,-1,35,-1,-1,-1,37,-1,39,41,43,-1,45,47,49,51,53,-1,-1,55,-1,-1,-1,-1,57,-1,-1,-1,-1,-1,-1,-1,-1,-1,-1,-1,-1,-1,-1],"loss_changes":[8.284148E8,3.3147418E8,1.7518976E7,2.5006192E7,3.655224E7,0E0,0E0,9.521338E6,1.2857848E7,9.328736E6,7.315288E6,5.997442E6,0E0,7.646416E6,2.7498608E6,2.131264E6,1.329578E6,3.136667E6,6.338E6,2.8447952E6,0E0,0E0,7.939636E6,0E0,0E0,0E0,4.56448E5,0E0,4.97276E5,1.9497628E5,4.11191E5,0E0,4.539825E4,9.41355E5,4.2518184E5,7.129602E5,1.0397E6,0E0,0E0,1.4344E4,0E0,0E0,0E0,0E0,1.127E5,0E0,0E0,0E0,0E0,0E0,0E0,0E0,0E0,0E0,0E0,0E0,0E0,0E0,0E0],"parents":[2147483647,0,0,1,1,2,2,3,3,4,4,7,7,8,8,9,9,10,10,11,11,13,13,14,14,15,15,16,16,17,17,18,18,19,19,22,22,26,26,28,28,29,29,30,30,32,32,33,33,34,34,35,35,36,36,39,39,44,44],"right_children":[2,4,6,8,10,-1,-1,12,14,16,18,20,-1,22,24,26,28,30,32,34,-1,-1,36,-1,-1,-1,38,-1,40,42,44,-1,46,48,50,52,54,-1,-1,56,-1,-1,-1,-1,58,-1,-1,-1,-1,-1,-1,-1,-1,-1,-1,-1,-1,-1,-1],"split_conditions":[1.83E2,2.9E1,1E0,1.012E2,6.56E1,2.5590808E2,6.0881635E2,6.66E1,5.83E1,9E1,2.695E3,1.54E2,1.5908765E2,5.2E3,8.7E1,9.45E1,6.41E1,1.1E2,7E0,9.31E0,1.07499374E2,2.1284113E2,6.77E1,-1.6213652E1,7.713799E1,-1.4416629E2,6.34E1,-8.646623E1,3E1,5E0,5.4E1,1.0118341E2,8.5E1,6.7E1,5.5E1,1.3E2,2E1,-2.6095926E1,-1.0760411E2,4.6E1,-5.029861E1,3.450495E1,1.0051465E0,-1.30329485E1,1.24E2,-6.770742E0,-3.310368E1,5.1919765E1,1.634307E1,-2.8836132E1,2.3906689E0,2.509163E1,-2.5571308E1,1.5663464E2,5.4113922E1,-1.9841953E1,-6.2365427E0,-5.5927498E1,-2.482913E1],"split_indices":[14,19,1,7,10,0,0,10,11,16,12,16,0,17,0,7,10,14,8,15,0,0,10,0,0,0,10,0,19,0,0,0,0,0,0,0,18,0,0,0,0,0,0,0,0,0,0,0,0,0,0,0,0,0,0,0,0,0,0],"split_type":[0,0,0,0,0,0,0,0,0,0,0,0,0,0,0,0,0,0,0,0,0,0,0,0,0,0,0,0,0,0,0,0,0,0,0,0,0,0,0,0,0,0,0,0,0,0,0,0,0,0,0,0,0,0,0,0,0,0,0],"sum_hessian":[1.57E2,1.48E2,9E0,4.3E1,1.05E2,3E0,6E0,2.3E1,2E1,8.4E1,2.1E1,2.1E1,2E0,1.7E1,3E0,6.8E1,1.6E1,1.7E1,4E0,1.8E1,3E0,9E0,8E0,2E0,1E0,2.2E1,4.6E1,6E0,1E1,2E0,1.5E1,2E0,2E0,1.3E1,5E0,2E0,6E0,1E0,4.5E1,3E0,7E0,1E0,1E0,2E0,1.3E1,1E0,1E0,7E0,6E0,2E0,3E0,1E0,1E0,4E0,2E0,1E0,2E0,1E1,3E0],"tree_param":{"num_deleted":"0","num_feature":"20","num_nodes":"59","size_leaf_vector":"1"}},{"base_weights":[1.100849E2,-1.2333074E3,2.8752712E3,-1.7364171E3,-3.6316776E2,1.8834277E3,4.3106396E2,-1.8780652E3,-2.944668E2,5.671086E2,-9.068069E2,2.1023787E3,-1.5728418E2,-1.5319159E2,-1.7054783E3,-4.9918472E2,2.8015224E1,1.1940024E3,-3.1991336E2,3.3469803E1,-9.9107635E2,2.6761904E3,1.3877146E3,-8.2013745E2,7.482387E1,-6.7857714E0,-1.7356678E3,-8.172099E0,-3.267246E1,8.632324E1,1.4981504E3,-1.1813583E1,-3.1741055E1,-1.0776349E3,-2.6797606E1,3.6669067E3,1.5322494E3,5.171057E2,1.9738751E3,-1.5565098E1,-7.506885E1,-1.7816064E3,-7.7345654E2,-8.09581E0,1.5864902E1,4.788867E0,1.0327424E2,-1.2179774E3,-7.14874E2,7.948652E1,4.0868425E3,1.988941E3,-3.4857553E2,-3.0133464E0,6.661416E2,2.0815815E3,2.6904316E1,-3.0010721E1,-1.0793805E2,-1.0478262E1,-5.4891014E1,-2.9074238E1,-7.843633E1,-4.7034367E1,-6.9494824E0,2.829255E2,8.804375E1,-3.2110577E1,1.4228116E2,-6.567627E0,-2.4804169E1,3.9425097E0,-4.213711E0,2.1250196E0,4.5921574E1,3.4464344E1,1.3111336E2],"categories":[],"categories_nodes":[],"categories_segments":[],"categories_sizes":[],"default_left":[0,0,0,0,0,0,0,0,0,0,0,0,0,0,0,0,0,0,0,0,0,0,0,0,0,0,0,0,0,0,0,0,0,0,0,0,0,0,0,0,0,0,0,0,0,0,0,0,0,0,0,0,0,0,0,0,0,0,0,0,0,0,0,0,0,0,0,0,0,0,0,0,0,0,0,0,0],"id":17,"left_children":[1,3,5,7,9,11,-1,13,15,17,19,21,23,-1,25,27,-1,29,31,-1,33,35,37,39,-1,-1,41,-1,-1,43,45,-1,-1,47,-1,49,51,53,55,-1,-1,57,59,-1,-1,-1,-1,61,63,-1,65,67,69,71,73,75,-1,-1,-1,-1,-1,-1,-1,-1,-1,-1,-1,-1,-1,-1,-1,-1,-1,-1,-1,-1,-1],"loss_changes":[5.68185E8,4.4460304E7,2.0016774E8,1.2723184E7,2.0237908E7,1.9096944E7,0E0,2.52016E6,1.3241669E6,8.723008E6,3.638456E6,1.1869328E7,5.6771495E6,0E0,2.20736E6,2.4614E4,0E0,2.902759E6,7.59085E4,0E0,6.49742E5,1.7047808E7,8.675316E6,6.4213175E5,0E0,0E0,7.87936E5,0E0,0E0,1.5388783E5,2.077504E6,0E0,0E0,1.47516E5,0E0,4.421296E6,1.0141826E7,6.99655E5,8.7394E5,0E0,0E0,1.23552E5,1.7890975E5,0E0,0E0,0E0,0E0,2.17896E5,2.40033E5,0E0,6.252912E6,9.95636E6,1.2523438E3,1.847206E4,4.109475E5,3.06848E5,0E0,0E0,0E0,0E0,0E0,0E0,0E0,0E0,0E0,0E0,0E0,0E0,0E0,0E0,0E0,0E0,0E0,0E0,0E0,0E0,0E0],"parents":[2147483647,0,0,1,1,2,2,3,3,4,4,5,5,7,7,8,8,9,9,10,10,11,11,12,12,14,14,15,15,17,17,18,18,20,20,21,21,22,22,23,23,26,26,29,29,30,30,33,33,35,35,36,36,37,37,38,38,41,41,42,42,47,47,48,48,50,50,51,51,52,52,53,53,54,54,55,55],"right_children":[2,4,6,8,10,12,-1,14,16,18,20,22,24,-1,26,28,-1,30,32,-1,34,36,38,40,-1,-1,42,-1,-1,44,46,-1,-1,48,-1,50,52,54,56,-1,-1,58,60,-1,-1,-1,-1,62,64,-1,66,68,70,72,74,76,-1,-1,-1,-1,-1,-1,-1,-1,-1,-1,-1,-1,-1,-1,-1,-1,-1,-1,-1,-1,-1],"split_conditions":[2.7E3,9E1,1.83E2,1.75E2,3E1,5.83E1,4.3106396E2,1.905E3,1.14E2,6.1E1,5E0,1.45E2,3.485E3,-1.5319159E2,1.569E2,5.4E1,2.8015224E1,2.395E3,2E0,3.3469803E1,1.24E2,2.8E1,1.6E2,8.7E1,7.482387E1,-6.7857714E0,1.22E2,-8.172099E0,-3.267246E1,5.5E1,3E0,-1.1813583E1,-3.1741055E1,8E0,-2.6797606E1,6E0,9E0,2.823E3,9.1E0,-1.5565098E1,-7.506885E1,2E0,1.26E2,-8.09581E0,1.5864902E1,4.788867E0,1.0327424E2,5.06E1,2.405E3,7.948652E1,5.6E1,5.24E1,8.5E1,3.2E1,1E0,5.1E3,2.6904316E1,-3.0010721E1,-1.0793805E2,-1.0478262E1,-5.4891014E1,-2.9074238E1,-7.843633E1,-4.7034367E1,-6.9494824E0,2.829255E2,8.804375E1,-3.2110577E1,1.4228116E2,-6.567627E0,-2.4804169E1,3.9425097E0,-4.213711E0,2.1250196E0,4.5921574E1,3.4464344E1,1.3111336E2],"split_indices":[12,16,14,9,19,11,0,12,0,0,0,16,12,0,9,0,0,12,5,0,0,19,16,0,0,0,0,0,0,0,0,0,0,8,0,0,8,12,15,0,0,4,0,0,0,0,0,11,12,0,11,11,0,0,8,17,0,0,0,0,0,0,0,0,0,0,0,0,0,0,0,0,0,0,0,0,0],"split_type":[0,0,0,0,0,0,0,0,0,0,0,0,0,0,0,0,0,0,0,0,0,0,0,0,0,0,0,0,0,0,0,0,0,0,0,0,0,0,0,0,0,0,0,0,0,0,0,0,0,0,0,0,0,0,0,0,0,0,0,0,0,0,0,0,0,0,0,0,0,0,0,0,0,0,0,0,0],"sum_hessian":[1.51E2,1.02E2,4.9E1,6.4E1,3.8E1,4.1E1,8E0,5.8E1,6E0,1.4E1,2.4E1,3.7E1,4E0,9E0,4.9E1,5E0,1E0,8E0,6E0,1E0,2.3E1,1.9E1,1.8E1,3E0,1E0,1E0,4.8E1,1E0,4E0,2E0,6E0,5E0,1E0,1.9E1,4E0,9E0,1E1,8E0,1E1,2E0,1E0,4.5E1,3E0,1E0,1E0,1E0,5E0,1.2E1,7E0,2E0,7E0,8E0,2E0,2E0,6E0,9E0,1E0,1E0,4.4E1,1E0,2E0,2E0,1E1,6E0,1E0,5E0,2E0,1E0,7E0,1E0,1E0,1E0,1E0,1E0,5E0,1E0,8E0],"tree_param":{"num_deleted":"0","num_feature":"20","num_nodes":"77","size_leaf_vector":"1"}},{"base_weights":[1.3624287E2,-3.0885403E2,8.520416E3,-1.307403E3,1.617372E3,2.1471742E2,5.742746E2,-1.5749259E3,-1.585649E2,3.1261309E3,1.2720037E3,-1.6849829E3,8.1617676E1,1.1214434E3,-5.4865717E2,7.930169E1,2.2848398E2,9.6380273E2,1.8379855E2,-1.4369687E2,-1.47114E3,-4.1852173E2,4.327586E1,7.422344E1,1.9769619E1,-6.920589E2,3.0343652E2,7.4026483E2,1.4014842E2,-1.4936879E3,-3.5481153E0,-1.1358164E1,-3.318536E1,-5.005626E1,-2.6922284E2,1.3453124E-1,2.7174755E1,-7.2816795E1,8.3342633E2,-9.2296455E1,-5.0161816E1,-1.9678183E1,-1.0270605E0,8.9178894E1,3.4522293E1],"categories":[],"categories_nodes":[],"categories_segments":[],"categories_sizes":[],"default_left":[0,0,0,0,0,0,0,0,0,0,0,0,0,0,0,0,0,0,0,0,0,0,0,0,0,0,0,0,0,0,0,0,0,0,0,0,0,0,0,0,0,0,0,0,0],"id":18,"left_children":[1,3,5,7,9,-1,-1,11,13,15,17,19,21,23,25,-1,-1,27,-1,-1,29,31,-1,-1,-1,33,35,37,-1,39,-1,-1,-1,-1,41,-1,-1,-1,43,-1,-1,-1,-1,-1,-1],"loss_changes":[5.922512E8,2.925526E8,7.29184E6,3.0484352E7,2.3119568E7,0E0,0E0,1.490496E7,1.0601714E7,6.04148E6,2.1339192E7,8.015088E6,2.2213398E6,5.02E4,2.1650625E6,0E0,0E0,1.0231988E7,0E0,0E0,1.853776E6,1.86805E4,0E0,0E0,0E0,6.17249E5,1.3404856E5,7.382374E6,0E0,4.73312E5,0E0,0E0,0E0,0E0,6.8437875E4,0E0,0E0,0E0,4.873172E6,0E0,0E0,0E0,0E0,0E0,0E0],"parents":[2147483647,0,0,1,1,2,2,3,3,4,4,7,7,8,8,9,9,10,10,11,11,12,12,13,13,14,14,17,17,20,20,21,21,25,25,26,26,27,27,29,29,34,34,38,38],"right_children":[2,4,6,8,10,-1,-1,12,14,16,18,20,22,24,26,-1,-1,28,-1,-1,30,32,-1,-1,-1,34,36,38,-1,40,-1,-1,-1,-1,42,-1,-1,-1,44,-1,-1,-1,-1,-1,-1],"split_conditions":[1.83E2,2.67E3,1E0,1.75E2,1.6E1,2.1471742E2,5.742746E2,6.56E1,4E1,6E0,1.4E2,1.951E3,5.5E1,1.1E1,1.27E2,7.930169E1,2.2848398E2,5.5E3,1.8379855E2,-1.4369687E2,1.38E2,1E1,4.327586E1,7.422344E1,1.9769619E1,9.31E0,1.33E2,1E0,1.4014842E2,1.06E2,-3.5481153E0,-1.1358164E1,-3.318536E1,-5.005626E1,8E0,1.3453124E-1,2.7174755E1,-7.2816795E1,9.7E1,-9.2296455E1,-5.0161816E1,-1.9678183E1,-1.0270605E0,8.9178894E1,3.4522293E1],"split_indices":[14,12,1,9,0,0,0,10,0,0,0,12,0,0,0,0,0,17,0,0,0,8,0,0,0,15,0,5,0,16,0,0,0,0,8,0,0,0,16,0,0,0,0,0,0],"split_type":[0,0,0,0,0,0,0,0,0,0,0,0,0,0,0,0,0,0,0,0,0,0,0,0,0,0,0,0,0,0,0,0,0,0,0,0,0,0,0,0,0,0,0,0,0],"sum_hessian":[1.57E2,1.5E2,7E0,9.9E1,5.1E1,2E0,5E0,8E1,1.9E1,8E0,4.3E1,7.5E1,5E0,4E0,1.5E1,3E0,5E0,3.8E1,5E0,1.5E1,6E1,3E0,2E0,3E0,1E0,1.3E1,2E0,3.4E1,4E0,5.9E1,1E0,2E0,1E0,9E0,4E0,1E0,1E0,1E0,3.3E1,5.4E1,5E0,3E0,1E0,8E0,2.5E1],"tree_param":{"num_deleted":"0","num_feature":"20","num_nodes":"45","size_leaf_vector":"1"}},{"base_weights":[1.6791422E2,-3.5676553E2,7.706511E3,-1.201176E3,1.411511E3,2.1533206E2,5.375112E2,2.50406E2,-1.3875876E3,-6.1060703E1,1.5420901E3,-4.1803125E2,6.3687854E2,-1.8009427E3,-1.060495E3,1.2278749E3,2.5190557E3,7.30944E1,-4.618879E1,9.045534E2,-1.10764E2,-2.6341494E1,-1.0959471E2,-1.2188927E3,-5.0372507E2,1.0774761E3,1.513862E2,7.8885025E1,2.8473647E3,-7.5121875E0,1.4090683E1,6.1500583E0,1.0444636E3,-8.972519E0,-9.962402E-1,-1.3893279E3,-8.535746E2,3.0239004E1,-6.296994E2,1.3677107E3,6.186648E2,5.030373E1,1.8254762E2,1.9176533E1,6.8746506E1,-7.395E0,-8.621674E1,-5.786637E1,-1.845517E1,-1.0179199E1,-4.2284595E1,2.1493193E1,1.0081958E2,-1.4835459E1,6.458111E1],"categories":[],"categories_nodes":[],"categories_segments":[],"categories_sizes":[],"default_left":[0,0,0,0,0,0,0,0,0,0,0,0,0,0,0,0,0,0,0,0,0,0,0,0,0,0,0,0,0,0,0,0,0,0,0,0,0,0,0,0,0,0,0,0,0,0,0,0,0,0,0,0,0,0,0],"id":19,"left_children":[1,3,5,7,9,-1,-1,11,13,-1,15,17,19,21,23,25,27,29,-1,31,33,-1,-1,35,37,39,-1,-1,41,-1,-1,-1,43,-1,-1,45,47,-1,49,51,53,-1,-1,-1,-1,-1,-1,-1,-1,-1,-1,-1,-1,-1,-1],"loss_changes":[6.079179E8,2.1670925E8,1.940224E7,2.6865456E7,1.6477816E7,0E0,0E0,3.366227E6,9.852976E6,0E0,1.0720896E7,9.201146E5,1.7011928E6,4.89904E5,3.883764E6,4.294248E6,2.10276E5,1.2562736E5,0E0,5.66234E5,8.471012E3,0E0,0E0,1.24236E6,1.9676478E6,3.681384E6,0E0,0E0,1.928E5,0E0,0E0,0E0,9.8E2,0E0,0E0,1.330096E6,6.11316E5,0E0,2.94722E5,5.709728E6,6.2109575E6,0E0,0E0,0E0,0E0,0E0,0E0,0E0,0E0,0E0,0E0,0E0,0E0,0E0,0E0],"parents":[2147483647,0,0,1,1,2,2,3,3,4,4,7,7,8,8,10,10,11,11,12,12,13,13,14,14,15,15,16,16,17,17,19,19,20,20,23,23,24,24,25,25,28,28,32,32,35,35,36,36,38,38,39,39,40,40],"right_children":[2,4,6,8,10,-1,-1,12,14,-1,16,18,20,22,24,26,28,30,-1,32,34,-1,-1,36,38,40,-1,-1,42,-1,-1,-1,44,-1,-1,46,48,-1,50,52,54,-1,-1,-1,-1,-1,-1,-1,-1,-1,-1,-1,-1,-1,-1],"split_conditions":[1.83E2,2.67E3,1E0,2.9E1,1.2E2,2.1533206E2,5.375112E2,2.395E3,2.14E3,-6.1060703E1,5.5E3,1E1,5.6E1,2E0,6.57E1,1.4E2,8.1E0,5.5E1,-4.618879E1,3E0,4E0,-2.6341494E1,-1.0959471E2,9E1,5E0,8.6E1,1.513862E2,7.8885025E1,6E0,-7.5121875E0,1.4090683E1,6.1500583E0,1E0,-8.972519E0,-9.962402E-1,2.145E3,5.28E1,3.0239004E1,5.4E1,2E0,2.921E3,5.030373E1,1.8254762E2,1.9176533E1,6.8746506E1,-7.395E0,-8.621674E1,-5.786637E1,-1.845517E1,-1.0179199E1,-4.2284595E1,2.1493193E1,1.0081958E2,-1.4835459E1,6.458111E1],"split_indices":[14,12,1,19,14,0,0,12,12,0,17,8,0,4,10,0,15,0,0,0,8,0,0,16,0,0,0,0,0,0,0,0,3,0,0,12,11,0,0,5,12,0,0,0,0,0,0,0,0,0,0,0,0,0,0],"split_type":[0,0,0,0,0,0,0,0,0,0,0,0,0,0,0,0,0,0,0,0,0,0,0,0,0,0,0,0,0,0,0,0,0,0,0,0,0,0,0,0,0,0,0,0,0,0,0,0,0,0,0,0,0,0,0],"sum_hessian":[1.52E2,1.43E2,9E0,9.7E1,4.6E1,3E0,6E0,1.1E1,8.6E1,2E0,4.4E1,4E0,7E0,3.6E1,5E1,3.5E1,9E0,2E0,2E0,5E0,2E0,1E0,3.5E1,3.8E1,1.2E1,3.3E1,2E0,3E0,6E0,1E0,1E0,1E0,4E0,1E0,1E0,2.4E1,1.4E1,1E0,1.1E1,1.9E1,1.4E1,1E0,5E0,1E0,3E0,1E0,2.3E1,1.1E1,3E0,2E0,9E0,5E0,1.4E1,5E0,9E0],"tree_param":{"num_deleted":"0","num_feature":"20","num_nodes":"55","size_leaf_vector":"1"}},{"base_weights":[5.5743904E1,-8.055118E2,2.865851E3,-1.1782118E3,7.5578436E2,1.6668492E3,3.6067236E2,-1.4971311E3,-4.557566E2,-3.6089664E1,1.4186869E3,5.5982043E2,2.1277607E3,-1.590932E3,-5.3284766E2,8.2722107E2,-6.941219E2,4.5011768E2,-5.1628204E2,1.7549915E3,3.0732983E2,7.174283E1,2.0732031E2,1.7829338E2,9.447857E1,-1.9210625E3,-1.3977709E3,-3.7710564E1,-1.1747734E1,1.0580933E3,-2.8880272E0,-3.8811913E1,-8.170946E2,-8.115918E1,4.4162754E1,-3.49843E1,-5.4700193E0,1.01764777E3,1.4533554E2,-2.0724512E1,6.796635E1,3.646043E2,-7.4355855E0,-2.5061483E1,-1.1909556E2,-1.1457213E3,-9.769065E1,5.9655466E0,8.067043E1,-4.2323306E2,2.1512793E1,-2.6651952E0,-8.535074E2,-8.70334E0,1.3990136E0,1.3016477E3,-1.2070546E1,2.8050781E1,3.477738E1,-4.3374214E1,-7.769057E1,-3.080414E1,-7.2868357E0,-5.3710438E1,-1.9140312E1,9.690554E1,3.3259216E1,2.1437695E0,3.8080078E-1],"categories":[],"categories_nodes":[],"categories_segments":[],"categories_sizes":[],"default_left":[0,0,0,0,0,0,0,0,0,0,0,0,0,0,0,0,0,0,0,0,0,0,0,0,0,0,0,0,0,0,0,0,0,0,0,0,0,0,0,0,0,0,0,0,0,0,0,0,0,0,0,0,0,0,0,0,0,0,0,0,0,0,0,0,0,0,0,0,0],"id":20,"left_children":[1,3,5,7,9,11,-1,13,15,17,19,21,23,25,27,29,31,33,35,37,39,-1,41,-1,-1,43,45,-1,-1,47,-1,49,51,53,-1,-1,-1,55,-1,-1,-1,57,-1,-1,-1,59,-1,-1,-1,61,-1,-1,63,-1,-1,65,-1,67,-1,-1,-1,-1,-1,-1,-1,-1,-1,-1,-1],"loss_changes":[3.508203E8,6.548083E7,1.1820394E8,2.005412E7,1.1599778E7,1.2075144E7,0E0,4.760208E6,9.442894E6,2.8005915E6,3.94569E6,1.7694768E6,3.721792E6,8.85824E5,1.02641625E5,1.0614055E6,1.98292E6,9.7117925E5,1.17202875E5,1.963044E6,2.5464618E6,0E0,4.0988275E5,0E0,0E0,8.99112E5,3.99448E5,0E0,0E0,9.64624E5,0E0,9.1551375E5,5.52925E5,2.340921E4,0E0,0E0,0E0,2.338734E6,0E0,0E0,0E0,3.455678E5,0E0,0E0,0E0,4.5108E5,0E0,0E0,0E0,1.9284125E4,0E0,0E0,1.59854E5,0E0,0E0,2.75951E5,0E0,2.7321484E2,0E0,0E0,0E0,0E0,0E0,0E0,0E0,0E0,0E0,0E0,0E0],"parents":[2147483647,0,0,1,1,2,2,3,3,4,4,5,5,7,7,8,8,9,9,10,10,11,11,12,12,13,13,14,14,15,15,16,16,17,17,18,18,19,19,20,20,22,22,25,25,26,26,29,29,31,31,32,32,33,33,37,37,41,41,45,45,49,49,52,52,55,55,57,57],"right_children":[2,4,6,8,10,12,-1,14,16,18,20,22,24,26,28,30,32,34,36,38,40,-1,42,-1,-1,44,46,-1,-1,48,-1,50,52,54,-1,-1,-1,56,-1,-1,-1,58,-1,-1,-1,60,-1,-1,-1,62,-1,-1,64,-1,-1,66,-1,68,-1,-1,-1,-1,-1,-1,-1,-1,-1,-1,-1],"split_conditions":[1.2E2,9.91E1,1.83E2,9E1,2E0,2E0,3.6067236E2,1.746E2,1E0,1.012E2,5.75E1,1.32E2,1.35E2,9.45E1,2.414E3,1.25E2,2.9E1,4E0,1.16E2,3.217E3,8.7E1,7.174283E1,1E1,1.7829338E2,9.447857E1,2.9E1,5.44E1,-3.7710564E1,-1.1747734E1,3E0,-2.8880272E0,2.385E3,1E0,1.02E2,4.4162754E1,-3.49843E1,-5.4700193E0,1E0,1.4533554E2,-2.0724512E1,6.796635E1,1E0,-7.4355855E0,-2.5061483E1,-1.1909556E2,1E1,-9.769065E1,5.9655466E0,8.067043E1,5.4E1,2.1512793E1,-2.6651952E0,1.27E2,-8.70334E0,1.3990136E0,6.1E1,-1.2070546E1,3.2E1,3.477738E1,-4.3374214E1,-7.769057E1,-3.080414E1,-7.2868357E0,-5.3710438E1,-1.9140312E1,9.690554E1,3.3259216E1,2.1437695E0,3.8080078E-1],"split_indices":[16,7,14,16,5,5,0,9,4,7,11,14,16,7,12,0,19,8,0,12,0,0,8,0,0,0,11,0,0,0,0,12,5,0,0,0,0,2,0,0,0,8,0,0,0,8,0,0,0,0,0,0,0,0,0,0,0,0,0,0,0,0,0,0,0,0,0,0,0],"split_type":[0,0,0,0,0,0,0,0,0,0,0,0,0,0,0,0,0,0,0,0,0,0,0,0,0,0,0,0,0,0,0,0,0,0,0,0,0,0,0,0,0,0,0,0,0,0,0,0,0,0,0,0,0,0,0,0,0,0,0,0,0,0,0,0,0,0,0,0,0],"sum_hessian":[1.43E2,1.1E2,3.3E1,8.9E1,2.1E1,2.5E1,8E0,6.1E1,2.8E1,1E1,1.1E1,8E0,1.7E1,5.5E1,6E0,4E0,2.4E1,5E0,5E0,8E0,3E0,2E0,6E0,5E0,1.2E1,1.7E1,3.8E1,4E0,2E0,3E0,1E0,4E0,2E1,2E0,3E0,4E0,1E0,5E0,3E0,2E0,1E0,4E0,2E0,1E0,1.6E1,2.1E1,1.7E1,1E0,2E0,2E0,2E0,1E0,1.9E1,1E0,1E0,4E0,1E0,2E0,2E0,7E0,1.4E1,1E0,1E0,1.7E1,2E0,2E0,2E0,1E0,1E0],"tree_param":{"num_deleted":"0","num_feature":"20","num_nodes":"69","size_leaf_vector":"1"}},{"base_weights":[2.4377892E1,-4.398924E2,7.4499937E3,-1.1380709E3,1.226482E3,1.15200874E2,4.7407434E2,-1.3627607E3,-8.480664E1,2.2587598E3,9.259968E2,-1.7357017E3,-1.1452957E3,-3.2443723E2,4.8846582E2,5.2769295E1,1.5163176E2,7.3579535E2,1.3296657E2,-1.1419248E2,-9.373658E2,3.316862E1,-1.1895568E3,-4.553439E2,3.073353E2,4.932867E1,-7.155664E0,5.306206E2,1.2236181E2,-6.638821E1,2.317793E0,5.786572E0,-2.8013964E0,-1.2345039E3,-6.24229E2,-4.4468647E1,-2.1980078E2,1.3570312E0,2.6303144E1,1.092445E2,7.4664777E2,-7.935543E1,-5.1161236E1,-5.871943E0,-4.259571E1,-2.6800878E0,-2.980795E1,-2.010838E1,4.2572002E1,7.570364E1,2.0487044E0],"categories":[],"categories_nodes":[],"categories_segments":[],"categories_sizes":[],"default_left":[0,0,0,0,0,0,0,0,0,0,0,0,0,0,0,0,0,0,0,0,0,0,0,0,0,0,0,0,0,0,0,0,0,0,0,0,0,0,0,0,0,0,0,0,0,0,0,0,0,0,0],"id":21,"left_children":[1,3,5,7,9,-1,-1,11,13,15,17,19,21,23,25,-1,-1,27,-1,-1,29,31,33,35,37,-1,-1,39,-1,-1,-1,-1,-1,41,43,-1,45,-1,-1,47,49,-1,-1,-1,-1,-1,-1,-1,-1,-1,-1],"loss_changes":[5.272961E8,1.6892928E8,7.287904E6,2.4023528E7,1.1246312E7,0E0,0E0,4.82464E6,2.768575E6,1.10958E6,6.957744E6,2.094064E6,2.960424E6,1.2977889E6,1.3147629E6,0E0,0E0,7.476568E6,0E0,0E0,1.198058E6,1.9661883E4,6.0152E5,6.4491525E5,1.0202225E5,0E0,0E0,2.558265E6,0E0,0E0,0E0,0E0,0E0,5.20256E5,2.0117675E5,0E0,3.6590056E5,0E0,0E0,3.1721402E6,6.929835E6,0E0,0E0,0E0,0E0,0E0,0E0,0E0,0E0,0E0,0E0],"parents":[2147483647,0,0,1,1,2,2,3,3,4,4,7,7,8,8,9,9,10,10,11,11,12,12,13,13,14,14,17,17,20,20,21,21,22,22,23,23,24,24,27,27,33,33,34,34,36,36,39,39,40,40],"right_children":[2,4,6,8,10,-1,-1,12,14,16,18,20,22,24,26,-1,-1,28,-1,-1,30,32,34,36,38,-1,-1,40,-1,-1,-1,-1,-1,42,44,-1,46,-1,-1,48,50,-1,-1,-1,-1,-1,-1,-1,-1,-1,-1],"split_conditions":[1.83E2,2.67E3,1.7E1,6.57E1,1.5E1,1.15200874E2,4.7407434E2,1.593E2,1.02E2,3E0,1.4E2,3E0,1E0,1.26E2,5.6E1,5.2769295E1,1.5163176E2,5.5E3,1.3296657E2,-1.1419248E2,4.3E1,3E0,1.24E2,6E0,1.33E2,4.932867E1,-7.155664E0,5.24E1,1.2236181E2,-6.638821E1,2.317793E0,5.786572E0,-2.8013964E0,9E1,1.26E2,-4.4468647E1,1.2E1,1.3570312E0,2.6303144E1,2.844E3,1E1,-7.935543E1,-5.1161236E1,-5.871943E0,-4.259571E1,-2.6800878E0,-2.980795E1,-2.010838E1,4.2572002E1,7.570364E1,2.0487044E0],"split_indices":[14,12,0,10,0,0,0,9,16,4,0,4,4,0,0,0,0,17,0,0,0,0,0,8,0,0,0,11,0,0,0,0,0,16,0,0,8,0,0,12,8,0,0,0,0,0,0,0,0,0,0],"split_type":[0,0,0,0,0,0,0,0,0,0,0,0,0,0,0,0,0,0,0,0,0,0,0,0,0,0,0,0,0,0,0,0,0,0,0,0,0,0,0,0,0,0,0,0,0,0,0,0,0,0,0],"sum_hessian":[1.51E2,1.43E2,8E0,1.01E2,4.2E1,1E0,7E0,8.3E1,1.8E1,8E0,3.4E1,2.8E1,5.5E1,1.3E1,5E0,2E0,6E0,3.1E1,3E0,2.2E1,6E0,2E0,5.3E1,1.1E1,2E0,3E0,2E0,2.8E1,3E0,5E0,1E0,1E0,1E0,4.8E1,5E0,4E0,7E0,1E0,1E0,1E1,1.8E1,3.7E1,1.1E1,1E0,4E0,5E0,2E0,6E0,4E0,1E1,8E0],"tree_param":{"num_deleted":"0","num_feature":"20","num_nodes":"51","size_leaf_vector":"1"}},{"base_weights":[-1.1987239E2,-1.0578822E3,1.7397845E3,-1.3291823E3,1.5439058E2,1.2740665E3,2.6511685E2,-1.7004822E3,-1.0384868E3,7.101887E1,-3.6324852E1,9.85237E2,2.6599888E3,-1.1984484E2,-1.3255753E3,-1.0908828E3,-1.8941089E2,-1.6745709E2,6.185373E1,-9.3442665E1,1.1904095E3,4.3952576E1,1.970675E2,-5.1348476E1,-9.280305E1,-1.2292013E3,-6.558524E2,-3.9813638E2,1.3102968E1,-4.2384668E2,7.905111E1,7.134485E2,-5.261839E1,1.4915881E3,6.96638E2,-7.499981E1,-1.6912382E1,-2.511836E0,-7.6368085E2,-6.8464746E0,-2.89858E1,-1.6366081E2,-4.817617E1,-2.0420918E1,2.4750084E2,5.612988E0,5.3333885E1,1.5968413E3,-1.2089121E1,1.0032968E3,-3.2083325E2,-2.0722559E1,-5.2642387E1,-2.0870531E1,2.2717382E1,-4.6075196E0,2.355458E1,3.886337E1,1.0930513E2,1.2859043E1,8.541152E1,-2.4986523E1,-1.020205E0],"categories":[],"categories_nodes":[],"categories_segments":[],"categories_sizes":[],"default_left":[0,0,0,0,0,0,0,0,0,0,0,0,0,0,0,0,0,0,0,0,0,0,0,0,0,0,0,0,0,0,0,0,0,0,0,0,0,0,0,0,0,0,0,0,0,0,0,0,0,0,0,0,0,0,0,0,0,0,0,0,0,0,0],"id":22,"left_children":[1,3,5,7,9,11,-1,13,15,-1,17,19,21,-1,23,25,27,29,-1,31,33,-1,-1,-1,-1,35,37,39,-1,41,43,45,-1,47,49,-1,-1,-1,51,-1,-1,53,-1,-1,55,-1,-1,57,-1,59,61,-1,-1,-1,-1,-1,-1,-1,-1,-1,-1,-1,-1],"loss_changes":[2.6000824E8,3.2765288E7,5.6749344E7,6.976816E6,3.7726055E6,1.499228E7,0E0,1.137224E6,1.9288E6,0E0,2.5517295E6,8.52122E6,6.019412E6,0E0,5.46244E5,1.901604E6,4.2741394E5,1.0447399E6,0E0,5.051242E6,3.719732E6,0E0,0E0,0E0,0E0,2.97764E5,8.287E5,1.7268281E4,0E0,6.576606E5,7.2006656E5,3.5188775E5,0E0,3.707572E6,4.6901225E6,0E0,0E0,0E0,2.201155E5,0E0,0E0,7.309726E5,0E0,0E0,3.5947534E5,0E0,0E0,2.662416E6,0E0,3.341982E6,1.0911428E5,0E0,0E0,0E0,0E0,0E0,0E0,0E0,0E0,0E0,0E0,0E0,0E0],"parents":[2147483647,0,0,1,1,2,2,3,3,4,4,5,5,7,7,8,8,10,10,11,11,12,12,14,14,15,15,16,16,17,17,19,19,20,20,25,25,26,26,27,27,29,29,30,30,31,31,33,33,34,34,38,38,41,41,44,44,47,47,49,49,50,50],"right_children":[2,4,6,8,10,12,-1,14,16,-1,18,20,22,-1,24,26,28,30,-1,32,34,-1,-1,-1,-1,36,38,40,-1,42,44,46,-1,48,50,-1,-1,-1,52,-1,-1,54,-1,-1,56,-1,-1,58,-1,60,62,-1,-1,-1,-1,-1,-1,-1,-1,-1,-1,-1,-1],"split_conditions":[1.3E2,1.75E2,1.83E2,7E1,1.1E1,6.89E1,2.6511685E2,1.593E2,6.56E1,7.101887E1,3.252E3,2.658E3,2.975E3,-1.1984484E2,5.37E1,1.09E2,5.4E1,8.8E0,6.185373E1,1E1,1.802E2,4.3952576E1,1.970675E2,-5.1348476E1,-9.280305E1,2.536E3,8.6E0,4.2E1,1.3102968E1,9.7E1,2.458E3,3E0,-5.261839E1,1.25E2,2.6E1,-7.499981E1,-1.6912382E1,-2.511836E0,8E0,-6.8464746E0,-2.89858E1,2E0,-4.817617E1,-2.0420918E1,4E0,5.612988E0,5.3333885E1,7.5E0,-1.2089121E1,6.66E1,4E0,-2.0722559E1,-5.2642387E1,-2.0870531E1,2.2717382E1,-4.6075196E0,2.355458E1,3.886337E1,1.0930513E2,1.2859043E1,8.541152E1,-2.4986523E1,-1.020205E0],"split_indices":[14,9,14,16,0,10,0,9,10,0,12,12,12,0,11,0,0,15,0,0,9,0,0,0,0,12,15,0,0,16,12,0,0,0,19,0,0,0,8,0,0,5,0,0,8,0,0,15,0,10,4,0,0,0,0,0,0,0,0,0,0,0,0],"split_type":[0,0,0,0,0,0,0,0,0,0,0,0,0,0,0,0,0,0,0,0,0,0,0,0,0,0,0,0,0,0,0,0,0,0,0,0,0,0,0,0,0,0,0,0,0,0,0,0,0,0,0,0,0,0,0,0,0,0,0,0,0,0,0],"sum_hessian":[1.47E2,9.8E1,4.9E1,8E1,1.8E1,4.3E1,6E0,3.3E1,4.7E1,2E0,1.6E1,3.7E1,6E0,1.6E1,1.7E1,4.4E1,3E0,1.5E1,1E0,6E0,3.1E1,2E0,4E0,7E0,1E1,3.2E1,1.2E1,2E0,1E0,7E0,8E0,3E0,3E0,1.8E1,1.3E1,3.1E1,1E0,2E0,1E1,1E0,1E0,5E0,2E0,2E0,6E0,1E0,2E0,1.7E1,1E0,1E1,3E0,3E0,7E0,4E0,1E0,2E0,4E0,4E0,1.3E1,4E0,6E0,2E0,1E0],"tree_param":{"num_deleted":"0","num_feature":"20","num_nodes":"63","size_leaf_vector":"1"}},{"base_weights":[-1.181839E2,-6.40385E2,2.8963171E3,-1.1690234E3,1.8794057E2,4.801698E3,1.0671398E3,-9.408935E1,-8.095229E2,-4.4492307E2,6.966465E2,3.5743384E2,1.4728317E2,1.5711469E3,4.8268527E2,-8.73483E2,2.9179947E2,1.986355E2,-7.584928E2,6.971743E1,1.6022053E3,1.034263E2,2.4240673E1,1.6040657E2,3.4770927E1,-7.095535E2,-7.6675385E1,1.4545312E0,2.480742E1,4.4979654E2,-3.6989844E2,-1.0417695E1,-8.351159E2,6.817812E1,-1.4824733E2,1.1274118E2,8.94224E2,-2.2875292E0,1.6724121E1,-8.2262177E2,-3.543252E2,-7.2867516E1,7.2934546E2,-2.811624E1,-5.174619E0,-1.0141318E1,-5.259231E1,3.703869E2,-3.7051315E2,7.720538E1,2.0361687E2,-5.1456036E1,-2.641992E0,-2.336326E1,-2.2147558E0,1.5168164E0,-8.074892E0,1.2709892E1,4.9874374E1,-1.7650625E1,5.4689316E1,-3.5338936E1,9.543208E0,-9.895898E-1,1.9315107E1],"categories":[],"categories_nodes":[],"categories_segments":[],"categories_sizes":[],"default_left":[0,0,0,0,0,0,0,0,0,0,0,0,0,0,0,0,0,0,0,0,0,0,0,0,0,0,0,0,0,0,0,0,0,0,0,0,0,0,0,0,0,0,0,0,0,0,0,0,0,0,0,0,0,0,0,0,0,0,0,0,0,0,0,0,0],"id":23,"left_children":[1,3,5,7,9,11,13,-1,15,17,19,-1,-1,21,23,25,27,29,31,33,35,-1,-1,37,-1,39,-1,-1,-1,41,43,-1,45,-1,47,-1,49,-1,-1,51,53,55,57,-1,-1,-1,-1,59,61,-1,63,-1,-1,-1,-1,-1,-1,-1,-1,-1,-1,-1,-1,-1,-1],"loss_changes":[2.2381357E8,5.320376E7,6.80668E7,9.348672E6,1.5763144E7,1.2496752E7,2.77646E6,0E0,3.142948E6,4.590274E6,1.5216769E7,0E0,0E0,3.72381E5,1.25486E5,1.678934E6,8.7628E4,1.3087276E6,5.27213E5,4.1205778E6,4.7551E5,0E0,0E0,8.11031E4,0E0,9.13476E5,0E0,0E0,0E0,9.298066E5,4.3580844E4,0E0,2.10534E5,0E0,1.8663532E6,0E0,1.0934232E6,0E0,0E0,5.61387E5,8.579025E4,2.1573543E4,3.48435E4,0E0,0E0,0E0,0E0,2.0661226E6,1.3663134E6,0E0,8.3427555E4,0E0,0E0,0E0,0E0,0E0,0E0,0E0,0E0,0E0,0E0,0E0,0E0,0E0,0E0],"parents":[2147483647,0,0,1,1,2,2,3,3,4,4,5,5,6,6,8,8,9,9,10,10,13,13,14,14,15,15,16,16,17,17,18,18,19,19,20,20,23,23,25,25,29,29,30,30,32,32,34,34,36,36,39,39,40,40,41,41,42,42,47,47,48,48,50,50],"right_children":[2,4,6,8,10,12,14,-1,16,18,20,-1,-1,22,24,26,28,30,32,34,36,-1,-1,38,-1,40,-1,-1,-1,42,44,-1,46,-1,48,-1,50,-1,-1,52,54,56,58,-1,-1,-1,-1,60,62,-1,64,-1,-1,-1,-1,-1,-1,-1,-1,-1,-1,-1,-1,-1,-1],"split_conditions":[5E0,9.4E1,4.9E3,2.122E3,5.28E1,2.1E1,9E0,-9.408935E1,6.69E1,2.2E1,1.12E2,3.5743384E2,1.4728317E2,1.3E1,1E0,4E0,1.33E2,1E1,1.01E2,1.1E1,2E1,1.034263E2,2.4240673E1,7.2E1,3.4770927E1,2.414E3,-7.6675385E1,1.4545312E0,2.480742E1,6E0,5.4E1,-1.0417695E1,4.96E1,6.817812E1,9.7E1,1.1274118E2,1.25E2,-2.2875292E0,1.6724121E1,1.38E2,8E0,3.2E1,2.395E3,-2.811624E1,-5.174619E0,-1.0141318E1,-5.259231E1,1E0,1E0,7.720538E1,1.39E2,-5.1456036E1,-2.641992E0,-2.336326E1,-2.2147558E0,1.5168164E0,-8.074892E0,1.2709892E1,4.9874374E1,-1.7650625E1,5.4689316E1,-3.5338936E1,9.543208E0,-9.895898E-1,1.9315107E1],"split_indices":[13,16,17,12,11,18,15,0,10,18,16,0,0,8,8,4,0,8,16,0,18,0,0,0,0,12,0,0,0,8,0,0,11,0,16,0,0,0,0,0,8,0,12,0,0,0,0,1,3,0,0,0,0,0,0,0,0,0,0,0,0,0,0,0,0],"split_type":[0,0,0,0,0,0,0,0,0,0,0,0,0,0,0,0,0,0,0,0,0,0,0,0,0,0,0,0,0,0,0,0,0,0,0,0,0,0,0,0,0,0,0,0,0,0,0,0,0,0,0,0,0,0,0,0,0,0,0,0,0,0,0,0,0],"sum_hessian":[1.4E2,1.2E2,2E1,7.3E1,4.7E1,9E0,1.1E1,3.3E1,4E1,2.1E1,2.6E1,5E0,4E0,5E0,6E0,3.8E1,2E0,7E0,1.4E1,1.6E1,1E1,4E0,1E0,2E0,4E0,2.9E1,9E0,1E0,1E0,5E0,2E0,2E0,1.2E1,2E0,1.4E1,6E0,4E0,1E0,1E0,2.1E1,8E0,2E0,3E0,1E0,1E0,1E0,1.1E1,4E0,1E1,2E0,2E0,2E1,1E0,7E0,1E0,1E0,1E0,1E0,2E0,2E0,2E0,7E0,3E0,1E0,1E0],"tree_param":{"num_deleted":"0","num_feature":"20","num_nodes":"65","size_leaf_vector":"1"}},{"base_weights":[2.0625351E2,-1.447004E2,4.287438E2,-8.8743604E2,9.3936554E2,-1.1849672E3,-2.6067963E2,2.0518147E3,6.590186E2,-1.2753312E3,-3.7022867E2,6.0844994E1,-4.5421448E2,1.5898749E2,8.042842E2,1.01720435E3,-1.7292455E2,-9.4693855E1,-1.0863716E3,-2.5453043E1,-9.410274E0,2.1576106E2,-6.3249646E2,-1.0490801E1,6.556671E1,8.297736E2,1.5689523E2,6.4249536E2,-4.303208E2,-1.1237526E3,-3.255179E2,-2.335664E1,3.6935974E1,-7.685376E2,-2.7005746E2,5.0155524E2,1.3076564E3,5.0459023E1,1.4109082E0,-7.791034E2,4.8312336E1,-1.750623E1,-6.847072E1,-3.5304198E0,-2.5766191E1,-4.868573E1,-6.328535E0,-1.6517577E0,-2.1693773E1,-8.342447E-1,5.0781208E1,1.760332E1,8.239146E1,-5.546025E1,-1.6640722E1,1.369439E1,-2.5539755E1],"categories":[],"categories_nodes":[],"categories_segments":[],"categories_sizes":[],"default_left":[0,0,0,0,0,0,0,0,0,0,0,0,0,0,0,0,0,0,0,0,0,0,0,0,0,0,0,0,0,0,0,0,0,0,0,0,0,0,0,0,0,0,0,0,0,0,0,0,0,0,0,0,0,0,0,0,0],"id":24,"left_children":[1,3,-1,5,7,9,11,13,15,17,19,-1,21,-1,23,25,27,-1,29,-1,-1,31,33,-1,-1,35,-1,37,39,41,43,-1,-1,45,47,49,51,-1,-1,53,55,-1,-1,-1,-1,-1,-1,-1,-1,-1,-1,-1,-1,-1,-1,-1,-1],"loss_changes":[3.5417226E8,1.1275287E8,0E0,1.5168912E7,1.6424504E7,3.650728E6,7.368521E6,6.074752E6,1.4181436E7,1.147248E6,1.41114375E4,0E0,3.122582E6,0E0,1.6034372E6,7.712428E6,3.4247695E6,0E0,6.01208E5,0E0,0E0,1.691145E6,7.78583E5,0E0,0E0,4.206486E6,0E0,4.7166562E5,2.0409072E6,1.3098E5,5.7870125E4,0E0,0E0,3.125675E5,1.453949E5,3.566356E6,3.94754E5,0E0,0E0,2.53746E5,6.088399E5,0E0,0E0,0E0,0E0,0E0,0E0,0E0,0E0,0E0,0E0,0E0,0E0,0E0,0E0,0E0,0E0],"parents":[2147483647,0,0,1,1,3,3,4,4,5,5,6,6,7,7,8,8,9,9,10,10,12,12,14,14,15,15,16,16,18,18,21,21,22,22,25,25,27,27,28,28,29,29,30,30,33,33,34,34,35,35,36,36,39,39,40,40],"right_children":[2,4,-1,6,8,10,12,14,16,18,20,-1,22,-1,24,26,28,-1,30,-1,-1,32,34,-1,-1,36,-1,38,40,42,44,-1,-1,46,48,50,52,-1,-1,54,56,-1,-1,-1,-1,-1,-1,-1,-1,-1,-1,-1,-1,-1,-1,-1,-1],"split_conditions":[1.94E2,2.548E3,4.287438E2,9E1,4.4E3,1.75E2,1.1E1,6.1E1,2.8E1,9.45E1,5.51E1,6.0844994E1,2.9E1,1.5898749E2,8.5E1,9.31E0,2E0,-9.4693855E1,1.22E2,-2.5453043E1,-9.410274E0,2.385E3,5.28E1,-1.0490801E1,6.556671E1,1.6E2,1.5689523E2,4E0,9.88E1,2E0,1.26E2,-2.335664E1,3.6935974E1,6.57E1,9.72E1,9E0,5.1E3,5.0459023E1,1.4109082E0,1.16E2,1.37E2,-1.750623E1,-6.847072E1,-3.5304198E0,-2.5766191E1,-4.868573E1,-6.328535E0,-1.6517577E0,-2.1693773E1,-8.342447E-1,5.0781208E1,1.760332E1,8.239146E1,-5.546025E1,-1.6640722E1,1.369439E1,-2.5539755E1],"split_indices":[14,12,0,16,17,9,0,0,19,7,11,0,19,0,0,15,8,0,0,0,0,12,11,0,0,16,0,4,7,4,0,0,0,10,7,8,17,0,0,0,0,0,0,0,0,0,0,0,0,0,0,0,0,0,0,0,0],"split_type":[0,0,0,0,0,0,0,0,0,0,0,0,0,0,0,0,0,0,0,0,0,0,0,0,0,0,0,0,0,0,0,0,0,0,0,0,0,0,0,0,0,0,0,0,0,0,0,0,0,0,0,0,0,0,0,0,0],"sum_hessian":[1.44E2,1.38E2,6E0,8.2E1,5.6E1,5.5E1,2.7E1,1E1,4.6E1,4.9E1,6E0,3E0,2.4E1,6E0,4E0,3.2E1,1.4E1,1.6E1,3.3E1,4E0,2E0,5E0,1.9E1,1E0,3E0,3E1,2E0,3E0,1.1E1,3.1E1,2E0,2E0,3E0,1.3E1,6E0,1.9E1,1.1E1,2E0,1E0,6E0,5E0,1E0,3E1,1E0,1E0,1.2E1,1E0,2E0,4E0,8E0,1.1E1,1E0,1E1,4E0,2E0,4E0,1E0],"tree_param":{"num_deleted":"0","num_feature":"20","num_nodes":"57","size_leaf_vector":"1"}},{"base_weights":[1.2525252E2,-2.2576245E2,6.0395884E3,-7.969694E2,1.2407148E3,5.3440027E2,2.3688245E2,-1.0833715E3,-2.258031E2,1.5661036E3,1.5175648E2,-1.1822808E3,-1.3194861E2,9.473281E2,-4.3225717E2,2.4542676E3,6.8961865E2,-6.34341E2,9.125612E2,-1.0982478E2,-1.0478315E3,-3.1493668E2,2.780104E2,4.7646384E0,1.1050295E3,-4.8804758E2,4.0591084E1,2.6536262E3,4.235031E1,1.1926819E2,1.0417264E3,2.0420185E1,-8.9734375E2,2.4804028E2,8.9664116E1,-3.4533072E2,-1.0670983E3,-4.077744E0,-2.1044344E1,1.3685741E0,2.3652363E1,2.8142635E1,8.236031E1,-2.1657698E2,-6.199333E2,1.9143464E3,2.1608762E2,4.523147E2,-1.7102266E2,3.4553806E1,1.3339349E3,-7.308953E1,-2.7741406E2,-1.8046112E1,5.6834003E1,-4.0454823E1,9.375058E0,-2.2137693E1,-6.518889E1,-2.776009E0,-3.2737835E1,-4.142217E1,-1.5387808E1,5.728582E1,1.3135208E2,1.4963379E0,3.5187614E1,-2.1938965E0,-1.1729751E1,1.7075214E1,8.921323E1,-1.9371094E-1,-2.4773554E1],"categories":[],"categories_nodes":[],"categories_segments":[],"categories_sizes":[],"default_left":[0,0,0,0,0,0,0,0,0,0,0,0,0,0,0,0,0,0,0,0,0,0,0,0,0,0,0,0,0,0,0,0,0,0,0,0,0,0,0,0,0,0,0,0,0,0,0,0,0,0,0,0,0,0,0,0,0,0,0,0,0,0,0,0,0,0,0,0,0,0,0,0,0],"id":25,"left_children":[1,3,5,7,9,-1,-1,11,13,15,17,19,21,23,25,27,29,31,33,-1,35,37,39,-1,41,43,-1,45,-1,47,49,-1,51,53,-1,55,57,-1,-1,-1,-1,-1,-1,59,61,63,-1,65,67,-1,69,-1,71,-1,-1,-1,-1,-1,-1,-1,-1,-1,-1,-1,-1,-1,-1,-1,-1,-1,-1,-1,-1],"loss_changes":[3.335268E8,1.2831343E8,1.8805888E7,1.7749528E7,1.4998728E7,0E0,0E0,6.713624E6,9.613003E6,2.3996752E7,7.1576075E6,3.833328E6,6.8769656E5,7.334795E5,2.3715205E6,3.704E6,3.490601E6,1.8434562E6,1.9492005E6,0E0,4.02988E5,2.92165E4,7.9968E4,0E0,2.072395E5,1.011435E6,0E0,2.915552E6,0E0,8.507989E5,7.29105E5,0E0,6.5647925E5,1.8197915E6,0E0,6.00287E5,3.43396E5,0E0,0E0,0E0,0E0,0E0,0E0,6.472497E5,3.60577E5,5.47292E5,0E0,2.1469656E5,9.30475E3,0E0,5.39851E5,0E0,1.1010572E5,0E0,0E0,0E0,0E0,0E0,0E0,0E0,0E0,0E0,0E0,0E0,0E0,0E0,0E0,0E0,0E0,0E0,0E0,0E0,0E0],"parents":[2147483647,0,0,1,1,2,2,3,3,4,4,7,7,8,8,9,9,10,10,11,11,12,12,13,13,14,14,15,15,16,16,17,17,18,18,20,20,21,21,22,22,24,24,25,25,27,27,29,29,30,30,32,32,33,33,35,35,36,36,43,43,44,44,45,45,47,47,48,48,50,50,52,52],"right_children":[2,4,6,8,10,-1,-1,12,14,16,18,20,22,24,26,28,30,32,34,-1,36,38,40,-1,42,44,-1,46,-1,48,50,-1,52,54,-1,56,58,-1,-1,-1,-1,-1,-1,60,62,64,-1,66,68,-1,70,-1,72,-1,-1,-1,-1,-1,-1,-1,-1,-1,-1,-1,-1,-1,-1,-1,-1,-1,-1,-1,-1],"split_conditions":[1.83E2,2.7E3,5E0,9E1,5.62E1,5.3440027E2,2.3688245E2,1.75E2,1.1E1,1.45E2,3.13E3,1.905E3,1.14E2,3E0,1.2E2,5.6E1,1.54E2,4E0,8.6E1,-1.0982478E2,1.569E2,5.4E1,1.33E2,4.7646384E0,2E0,3E1,4.0591084E1,3.016E3,4.235031E1,6.7E1,1E0,2.0420185E1,1.13E2,1E0,8.9664116E1,3.8E1,4.96E1,-4.077744E0,-2.1044344E1,1.3685741E0,2.3652363E1,2.8142635E1,8.236031E1,1E1,1.24E2,1.45E2,2.1608762E2,3.2E1,1E0,3.4553806E1,5.1E3,-7.308953E1,1.39E2,-1.8046112E1,5.6834003E1,-4.0454823E1,9.375058E0,-2.2137693E1,-6.518889E1,-2.776009E0,-3.2737835E1,-4.142217E1,-1.5387808E1,5.728582E1,1.3135208E2,1.4963379E0,3.5187614E1,-2.1938965E0,-1.1729751E1,1.7075214E1,8.921323E1,-1.9371094E-1,-2.4773554E1],"split_indices":[14,12,8,16,11,0,0,9,0,16,12,12,0,0,16,11,16,8,0,0,9,0,0,0,5,19,0,12,0,0,2,0,0,1,0,0,11,0,0,0,0,0,0,8,0,14,0,0,8,0,17,0,0,0,0,0,0,0,0,0,0,0,0,0,0,0,0,0,0,0,0,0,0],"split_type":[0,0,0,0,0,0,0,0,0,0,0,0,0,0,0,0,0,0,0,0,0,0,0,0,0,0,0,0,0,0,0,0,0,0,0,0,0,0,0,0,0,0,0,0,0,0,0,0,0,0,0,0,0,0,0,0,0,0,0,0,0,0,0,0,0,0,0,0,0,0,0,0,0],"sum_hessian":[1.59E2,1.51E2,8E0,1.09E2,4.2E1,2E0,6E0,7.2E1,3.7E1,3.2E1,1E1,6.5E1,7E0,5E0,3.2E1,1.5E1,1.7E1,5E0,5E0,9E0,5.6E1,5E0,2E0,1E0,4E0,3.1E1,1E0,1.3E1,2E0,7E0,1E1,1E0,4E0,3E0,2E0,2E0,5.4E1,1E0,4E0,1E0,1E0,2E0,2E0,1.1E1,2E1,9E0,4E0,3E0,4E0,5E0,5E0,2E0,2E0,2E0,1E0,1E0,1E0,2E0,5.2E1,8E0,3E0,1.6E1,4E0,3E0,6E0,1E0,2E0,1E0,3E0,1E0,4E0,1E0,1E0],"tree_param":{"num_deleted":"0","num_feature":"20","num_nodes":"73","size_leaf_vector":"1"}},{"base_weights":[-7.18766E1,-3.2703992E2,3.0031235E2,-8.822361E2,7.7849805E2,-1.0809047E3,-2.6602628E2,-7.914219E1,9.8370605E2,-1.0389425E2,-9.565183E2,-5.55836E2,3.8307263E2,-7.3948926E2,7.291027E2,1.2707124E3,3.3402365E2,-9.972961E2,1.6428352E2,-7.266648E2,-3.2324762E2,-4.0906982E2,9.4017206E2,-7.016593E1,-2.3215967E2,6.8187805E1,7.870768E1,1.8917222E3,8.306648E2,-2.550394E1,6.04257E2,9.093808E0,-1.01971716E3,1.9681553E1,-4.896035E0,-2.5527734E2,-4.9492725E1,-3.0532894E1,-1.4561702E2,-2.8073437E1,-6.9782224E0,7.3935036E1,2.0082167E1,-1.6308067E1,-3.3970604E0,-1.5859101E1,2.2942793E1,4.6216993E0,2.0847961E3,2.0062E2,1.2516342E3,7.840118E1,1.16546455E2,-9.125109E1,-5.5266804E1,-2.31929E1,2.1793945E-1,-1.1585053E1,-2.0273046E0,6.468517E1,1.445082E2,2.6060814E1,-1.5891328E0,4.715454E1,1.0522468E2,-1.1567128E1,5.917614E1],"categories":[],"categories_nodes":[],"categories_segments":[],"categories_sizes":[],"default_left":[0,0,0,0,0,0,0,0,0,0,0,0,0,0,0,0,0,0,0,0,0,0,0,0,0,0,0,0,0,0,0,0,0,0,0,0,0,0,0,0,0,0,0,0,0,0,0,0,0,0,0,0,0,0,0,0,0,0,0,0,0,0,0,0,0,0,0],"id":26,"left_children":[1,3,-1,5,7,9,11,13,15,-1,17,19,21,23,25,27,29,31,33,35,37,39,41,-1,43,-1,45,47,49,-1,51,-1,53,-1,-1,55,-1,-1,57,-1,-1,-1,-1,-1,-1,-1,-1,-1,59,61,63,-1,65,-1,-1,-1,-1,-1,-1,-1,-1,-1,-1,-1,-1,-1,-1],"loss_changes":[1.8948226E8,8.60037E7,0E0,1.1097656E7,8.349602E6,4.009096E6,4.7276895E6,5.876385E6,6.661144E6,0E0,2.951772E6,4.40565E5,3.915013E6,1.03724175E6,1.2352788E6,5.533732E6,2.9235555E6,1.674316E6,1.4755203E5,2.060985E5,2.226665E5,1.44655625E4,4.717855E5,0E0,1.24461875E4,0E0,4.1357244E5,3.343112E6,4.2578E6,0E0,3.273532E6,0E0,1.46512E6,0E0,0E0,1.0336606E5,0E0,0E0,2.532514E4,0E0,0E0,0E0,0E0,0E0,0E0,0E0,0E0,0E0,3.36076E5,4.3614938E5,9.6017E5,0E0,2.0733692E6,0E0,0E0,0E0,0E0,0E0,0E0,0E0,0E0,0E0,0E0,0E0,0E0,0E0,0E0],"parents":[2147483647,0,0,1,1,3,3,4,4,5,5,6,6,7,7,8,8,10,10,11,11,12,12,13,13,14,14,15,15,16,16,17,17,18,18,19,19,20,20,21,21,22,22,24,24,26,26,27,27,28,28,30,30,32,32,35,35,38,38,48,48,49,49,50,50,52,52],"right_children":[2,4,-1,6,8,10,12,14,16,-1,18,20,22,24,26,28,30,32,34,36,38,40,42,-1,44,-1,46,48,50,-1,52,-1,54,-1,-1,56,-1,-1,58,-1,-1,-1,-1,-1,-1,-1,-1,-1,60,62,64,-1,66,-1,-1,-1,-1,-1,-1,-1,-1,-1,-1,-1,-1,-1,-1],"split_conditions":[1.83E2,2.548E3,3.0031235E2,2.37E3,1.22E2,1.905E3,5.6E3,1.1E1,2.2E1,-1.0389425E2,6.56E1,6.57E1,2.385E3,1E0,1.03E2,1.42E2,2.695E3,1.569E2,5E0,1E0,6E0,5.4E1,8E0,-7.016593E1,7E0,6.8187805E1,1.04E2,3E0,6.66E1,-2.550394E1,1.766E2,9.093808E0,6.38E1,1.9681553E1,-4.896035E0,1.09E2,-4.9492725E1,-3.0532894E1,5.9E1,-2.8073437E1,-6.9782224E0,7.3935036E1,2.0082167E1,-1.6308067E1,-3.3970604E0,-1.5859101E1,2.2942793E1,4.6216993E0,6E0,6.7E1,3.139E3,7.840118E1,3.485E3,-9.125109E1,-5.5266804E1,-2.31929E1,2.1793945E-1,-1.1585053E1,-2.0273046E0,6.468517E1,1.445082E2,2.6060814E1,-1.5891328E0,4.715454E1,1.0522468E2,-1.1567128E1,5.917614E1],"split_indices":[14,12,0,12,14,12,17,8,18,0,10,10,12,3,0,16,12,9,0,5,8,0,8,0,8,0,0,0,10,0,9,0,10,0,0,0,0,0,0,0,0,0,0,0,0,0,0,0,0,0,12,0,12,0,0,0,0,0,0,0,0,0,0,0,0,0,0],"split_type":[0,0,0,0,0,0,0,0,0,0,0,0,0,0,0,0,0,0,0,0,0,0,0,0,0,0,0,0,0,0,0,0,0,0,0,0,0,0,0,0,0,0,0,0,0,0,0,0,0,0,0,0,0,0,0,0,0,0,0,0,0,0,0,0,0,0,0],"sum_hessian":[1.44E2,1.38E2,6E0,9.2E1,4.6E1,6.9E1,2.3E1,9E0,3.7E1,9E0,6E1,1.6E1,7E0,5E0,4E0,2.5E1,1.2E1,5.8E1,2E0,8E0,8E0,3E0,4E0,2E0,3E0,2E0,2E0,9E0,1.6E1,3E0,9E0,1E0,5.7E1,1E0,1E0,2E0,6E0,3E0,5E0,2E0,1E0,2E0,2E0,2E0,1E0,1E0,1E0,1E0,8E0,7E0,9E0,3E0,6E0,7E0,5E1,1E0,1E0,3E0,2E0,3E0,5E0,3E0,4E0,6E0,3E0,5E0,1E0],"tree_param":{"num_deleted":"0","num_feature":"20","num_nodes":"67","size_leaf_vector":"1"}},{"base_weights":[-3.661845E1,-7.691508E2,1.5153446E3,-9.668899E2,-3.2909818E2,3.3517515E3,8.64354E2,-1.3417074E3,-8.0322217E2,7.740442E2,-4.5670667E2,8.013936E1,4.0993877E3,6.217924E2,1.2568863E2,-8.764776E1,-8.0052E2,-8.66316E2,-1.5408562E2,4.483037E0,5.893484E1,-5.1139108E2,3.7155323E1,2.6253088E2,5.6711132E1,-2.792846E2,8.248548E2,-6.116584E1,8.820996E0,-7.65904E2,-1.1813323E3,-2.0778613E2,3.4325097E0,-6.710536E2,-2.695828E2,-6.2073956E2,5.308336E1,9.666427E2,-2.0698048E1,-1.900388E1,-7.937631E2,-8.0515E1,-3.629859E1,-3.6078515E0,-1.3780034E1,-7.30217E2,-7.909863E0,-8.95709E1,-5.7569006E2,2.1912567E1,-8.909713E2,5.2695996E2,1.1535491E3,-2.1404024E1,1.9334217E1,-6.1374973E1,-4.171653E1,-1.22627535E1,-4.744429E1,1.8216972E1,-1.00196085E1,-7.1325583E0,-3.9610474E1,-1.5269677E1,-5.9188007E1,5.1495504E0,6.3415268E1,8.202494E1,3.418879E1],"categories":[],"categories_nodes":[],"categories_segments":[],"categories_sizes":[],"default_left":[0,0,0,0,0,0,0,0,0,0,0,0,0,0,0,0,0,0,0,0,0,0,0,0,0,0,0,0,0,0,0,0,0,0,0,0,0,0,0,0,0,0,0,0,0,0,0,0,0,0,0,0,0,0,0,0,0,0,0,0,0,0,0,0,0,0,0,0,0],"id":27,"left_children":[1,3,5,7,9,11,13,15,17,19,21,-1,23,25,-1,-1,27,29,31,-1,-1,33,-1,-1,-1,35,37,-1,-1,39,41,43,-1,45,47,49,-1,51,53,-1,55,-1,-1,-1,-1,57,-1,59,61,-1,63,65,67,-1,-1,-1,-1,-1,-1,-1,-1,-1,-1,-1,-1,-1,-1,-1,-1],"loss_changes":[1.8078992E8,9.079484E6,5.807256E7,3.46188E6,5.2804725E6,1.4119616E7,1.033746E7,1.84036E5,2.078168E6,5.090175E5,2.1995095E6,0E0,3.70296E6,6.451516E6,0E0,0E0,1.3944288E6,6.45148E5,7.996675E4,0E0,0E0,1.0159345E6,0E0,0E0,0E0,3.3313748E6,3.376902E6,0E0,0E0,2.49132E5,1.1371E5,2.3442188E3,0E0,4.77974E5,7.198762E5,1.9239992E6,0E0,1.364434E6,6.911448E5,0E0,1.23836E5,0E0,0E0,0E0,0E0,3.47579E5,0E0,3.5511756E5,1.14489625E5,0E0,5.285275E4,2.0133445E6,1.21537E6,0E0,0E0,0E0,0E0,0E0,0E0,0E0,0E0,0E0,0E0,0E0,0E0,0E0,0E0,0E0,0E0],"parents":[2147483647,0,0,1,1,2,2,3,3,4,4,5,5,6,6,7,7,8,8,9,9,10,10,12,12,13,13,16,16,17,17,18,18,21,21,25,25,26,26,29,29,30,30,31,31,33,33,34,34,35,35,37,37,38,38,40,40,45,45,47,47,48,48,50,50,51,51,52,52],"right_children":[2,4,6,8,10,12,14,16,18,20,22,-1,24,26,-1,-1,28,30,32,-1,-1,34,-1,-1,-1,36,38,-1,-1,40,42,44,-1,46,48,50,-1,52,54,-1,56,-1,-1,-1,-1,58,-1,60,62,-1,64,66,68,-1,-1,-1,-1,-1,-1,-1,-1,-1,-1,-1,-1,-1,-1,-1,-1],"split_conditions":[2.67E3,9E1,2.4E1,1.971E3,1.1E1,2.847E3,1.4E2,7E1,1.756E2,3E0,1.2E2,8.013936E1,4E0,1.21E2,1.2568863E2,-8.764776E1,4.4E1,2.337E3,1.14E2,4.483037E0,5.893484E1,8E0,3.7155323E1,2.6253088E2,5.6711132E1,1.1E1,1.25E2,-6.116584E1,8.820996E0,5.08E1,9.7E1,5.4E1,3.4325097E0,1.24E2,1.2E1,4E0,5.308336E1,2E0,1.045E2,-1.900388E1,9.7E1,-8.0515E1,-3.629859E1,-3.6078515E0,-1.3780034E1,5.06E1,-7.909863E0,4E1,6.54E1,2.1912567E1,4.6E1,8.1E1,8.9E1,-2.1404024E1,1.9334217E1,-6.1374973E1,-4.171653E1,-1.22627535E1,-4.744429E1,1.8216972E1,-1.00196085E1,-7.1325583E0,-3.9610474E1,-1.5269677E1,-5.9188007E1,5.1495504E0,6.3415268E1,8.202494E1,3.418879E1],"split_indices":[12,16,0,12,0,12,0,16,9,0,16,0,4,14,0,0,0,12,0,0,0,8,0,0,0,8,0,0,0,11,7,0,0,0,8,8,0,5,7,0,14,0,0,0,0,11,0,0,10,0,0,0,0,0,0,0,0,0,0,0,0,0,0,0,0,0,0,0,0],"split_type":[0,0,0,0,0,0,0,0,0,0,0,0,0,0,0,0,0,0,0,0,0,0,0,0,0,0,0,0,0,0,0,0,0,0,0,0,0,0,0,0,0,0,0,0,0,0,0,0,0,0,0,0,0,0,0,0,0,0,0,0,0,0,0,0,0,0,0,0,0],"sum_hessian":[1.57E2,1.07E2,5E1,7.3E1,3.4E1,1.2E1,3.8E1,2E1,5.3E1,3E0,3.1E1,4E0,8E0,3.3E1,5E0,1.5E1,5E0,4.8E1,5E0,1E0,2E0,3E1,1E0,7E0,1E0,6E0,2.7E1,4E0,1E0,3.9E1,9E0,4E0,1E0,1.7E1,1.3E1,5E0,1E0,2.3E1,4E0,3E0,3.6E1,6E0,3E0,1E0,3E0,1.5E1,2E0,9E0,4E0,1E0,4E0,8E0,1.5E1,2E0,2E0,8E0,2.8E1,2E0,1.3E1,1E0,8E0,1E0,3E0,1E0,3E0,5E0,3E0,1E1,5E0],"tree_param":{"num_deleted":"0","num_feature":"20","num_nodes":"69","size_leaf_vector":"1"}},{"base_weights":[2.027132E2,-1.4220485E2,5.3217207E3,9.6054926E2,-7.088539E2,2.1518762E2,4.9051044E2,7.590479E2,2.345301E3,-7.681963E2,8.677011E1,1.543234E2,1.1422878E3,3.328711E1,1.5554683E2,-8.7077264E2,-3.841256E1,4.3688282E1,-4.7236393E1,2.0483853E3,6.774297E2,-1.1276779E3,-6.943832E2,-2.9661197E2,4.340289E2,4.0227436E1,-2.8253125E2,5.452573E1,1.4800418E2,2.2625574E2,9.029652E2,-1.2115898E1,-1.150297E3,1.7323067E1,-7.1884125E2,1.0770183E1,-3.8597406E2,-7.780576E0,6.0737427E2,-3.315501E1,-6.4177734E-1,-7.1081543E0,2.7407074E1,2.1577358E1,6.626956E1,-3.3532127E1,-7.153247E1,-5.1722874E1,-3.453226E1,1.4406445E0,-4.713281E-1,-2.4879785E0,-2.6188856E1,4.6370255E1,3.3295312E0],"categories":[],"categories_nodes":[],"categories_segments":[],"categories_sizes":[],"default_left":[0,0,0,0,0,0,0,0,0,0,0,0,0,0,0,0,0,0,0,0,0,0,0,0,0,0,0,0,0,0,0,0,0,0,0,0,0,0,0,0,0,0,0,0,0,0,0,0,0,0,0,0,0,0,0],"id":28,"left_children":[1,3,5,7,9,-1,-1,11,13,15,-1,17,19,-1,-1,21,23,-1,25,27,29,31,33,35,37,-1,39,-1,-1,41,43,-1,45,-1,47,49,51,-1,53,-1,-1,-1,-1,-1,-1,-1,-1,-1,-1,-1,-1,-1,-1,-1,-1],"loss_changes":[2.7972758E8,9.37872E7,2.0194912E7,1.2450296E7,1.377148E7,0E0,0E0,1.048443E7,1.21686E6,7.227832E6,0E0,2.2318962E6,1.0406152E7,0E0,0E0,3.06876E6,1.7145316E6,0E0,2.7224695E6,2.049188E6,1.830813E6,4.58724E5,1.481916E6,2.5137181E5,5.673404E5,0E0,8.7500506E5,0E0,0E0,6.8986725E5,1.02628E6,0E0,1.26904E5,0E0,5.71002E5,9.2845776E2,1.0370081E5,0E0,3.2237838E5,0E0,0E0,0E0,0E0,0E0,0E0,0E0,0E0,0E0,0E0,0E0,0E0,0E0,0E0,0E0,0E0],"parents":[2147483647,0,0,1,1,2,2,3,3,4,4,7,7,8,8,9,9,11,11,12,12,15,15,16,16,18,18,19,19,20,20,21,21,22,22,23,23,24,24,26,26,29,29,30,30,32,32,34,34,35,35,36,36,38,38],"right_children":[2,4,6,8,10,-1,-1,12,14,16,-1,18,20,-1,-1,22,24,-1,26,28,30,32,34,36,38,-1,40,-1,-1,42,44,-1,46,-1,48,50,52,-1,54,-1,-1,-1,-1,-1,-1,-1,-1,-1,-1,-1,-1,-1,-1,-1,-1],"split_conditions":[1.83E2,2.9E1,3.04E2,6.89E1,1.035E2,2.1518762E2,4.9051044E2,1.15E2,6E0,1.24E2,8.677011E1,9.7E1,1.45E2,3.328711E1,1.5554683E2,9.8E1,2.563E3,4.3688282E1,4E1,1.41E2,1.54E2,2E0,5E0,9.59E1,5.24E1,4.0227436E1,1E0,5.452573E1,1.4800418E2,2.844E3,4E0,-1.2115898E1,9.33E1,1.7323067E1,2.6E1,1.26E2,1.26E2,-7.780576E0,4E0,-3.315501E1,-6.4177734E-1,-7.1081543E0,2.7407074E1,2.1577358E1,6.626956E1,-3.3532127E1,-7.153247E1,-5.1722874E1,-3.453226E1,1.4406445E0,-4.713281E-1,-2.4879785E0,-2.6188856E1,4.6370255E1,3.3295312E0],"split_indices":[14,19,14,10,7,0,0,16,0,0,0,16,16,0,0,14,12,0,0,14,16,4,0,7,11,0,3,0,0,12,8,0,7,0,18,0,0,0,4,0,0,0,0,0,0,0,0,0,0,0,0,0,0,0,0],"split_type":[0,0,0,0,0,0,0,0,0,0,0,0,0,0,0,0,0,0,0,0,0,0,0,0,0,0,0,0,0,0,0,0,0,0,0,0,0,0,0,0,0,0,0,0,0,0,0,0,0,0,0,0,0,0,0],"sum_hessian":[1.57E2,1.48E2,9E0,5E1,9.8E1,7E0,2E0,4.5E1,5E0,9.6E1,2E0,1.8E1,2.7E1,1E0,4E0,8.4E1,1.2E1,4E0,1.4E1,8E0,1.9E1,3.2E1,5.2E1,8E0,4E0,3E0,1.1E1,3E0,5E0,7E0,1.2E1,1E0,3.1E1,1E0,5.1E1,2E0,6E0,1E0,3E0,5E0,6E0,3E0,4E0,4E0,8E0,3E0,2.8E1,2.3E1,2.8E1,1E0,1E0,1E0,5E0,2E0,1E0],"tree_param":{"num_deleted":"0","num_feature":"20","num_nodes":"55","size_leaf_vector":"1"}},{"base_weights":[1.9662202E2,-1.6157669E2,4.2043447E3,-7.2401166E2,8.389981E2,2.8283613E3,4.7089008E2,-8.483237E2,-1.2746485E1,3.8549417E2,1.1245634E3,3.2288494E1,3.003569E3,-1.2638557E3,-7.24693E2,-2.0877979E2,3.4712402E1,7.0268896E2,-1.5075261E2,5.280612E2,1.5591727E3,1.8944812E2,4.855418E1,-5.154624E2,-8.3244415E1,-8.7930096E2,-5.881061E2,-2.262701E1,-1.3740068E2,8.3588727E2,1.6072144E2,-3.1966928E2,1.4031055E2,6.359748E1,3.0675717E2,1.7644841E3,3.9946167E2,1.0702324E1,-4.8371876E1,-9.3133575E2,-1.3523274E2,-7.020447E2,-1.5562555E2,-2.4271707E2,8.1253174E1,8.3339195E1,9.938602E2,-2.2895252E1,5.362945E1,3.2296581E0,-4.051342E2,-6.4977927E0,2.6583954E1,-1.1313794E2,4.592931E2,9.48229E2,2.3601787E3,4.9430332E1,-1.6610352E1,-1.1882559E1,-5.9051502E1,1.3974316E0,-1.3568378E1,-6.729375E0,-4.314639E1,3.070791E0,-2.5615635E1,-7.541754E0,-2.14108E1,1.1021192E1,-8.47207E-1,-1.3259912E1,2.0760439E1,7.645729E1,1.948519E1,-3.1283012E1,1.7958984E0,7.2840816E-1,-9.536641E0,-3.0570996E0,3.1766558E1,-3.532746E1,7.5114975E1,7.660674E1,1.8746303E2,-9.68622E0,8.191289E0],"categories":[],"categories_nodes":[],"categories_segments":[],"categories_sizes":[],"default_left":[0,0,0,0,0,0,0,0,0,0,0,0,0,0,0,0,0,0,0,0,0,0,0,0,0,0,0,0,0,0,0,0,0,0,0,0,0,0,0,0,0,0,0,0,0,0,0,0,0,0,0,0,0,0,0,0,0,0,0,0,0,0,0,0,0,0,0,0,0,0,0,0,0,0,0,0,0,0,0,0,0,0,0,0,0,0,0],"id":29,"left_children":[1,3,5,7,9,11,-1,13,15,17,19,-1,21,23,25,27,-1,29,31,33,35,-1,-1,37,-1,39,41,-1,43,45,47,49,51,-1,53,55,57,-1,-1,59,61,63,65,67,69,71,73,-1,-1,-1,75,-1,-1,77,79,81,83,-1,85,-1,-1,-1,-1,-1,-1,-1,-1,-1,-1,-1,-1,-1,-1,-1,-1,-1,-1,-1,-1,-1,-1,-1,-1,-1,-1,-1,-1],"loss_changes":[2.2749797E8,8.277015E7,4.2982496E7,8.30056E6,6.430252E6,2.797568E6,0E0,3.193892E6,1.8594651E6,3.848015E6,7.472512E6,0E0,8.21928E5,8.56746E5,8.34396E5,9.2372875E4,0E0,8.76303E5,4.8734175E5,1.4405142E6,3.580992E6,0E0,0E0,9.506924E5,0E0,9.58142E5,1.713964E6,0E0,2.4999988E5,1.2248775E6,1.9313452E6,2.1333262E5,3.4905106E5,0E0,8.205524E5,5.055592E6,7.1997025E5,0E0,0E0,8.12818E5,4.8499492E4,2.11222E5,5.2680994E5,4.8634906E4,4.1671297E4,3.162866E5,1.274898E6,0E0,0E0,0E0,2.684865E5,0E0,0E0,2.4883586E4,3.4911712E5,4.471305E6,2.634368E6,0E0,8.8572336E4,0E0,0E0,0E0,0E0,0E0,0E0,0E0,0E0,0E0,0E0,0E0,0E0,0E0,0E0,0E0,0E0,0E0,0E0,0E0,0E0,0E0,0E0,0E0,0E0,0E0,0E0,0E0,0E0],"parents":[2147483647,0,0,1,1,2,2,3,3,4,4,5,5,7,7,8,8,9,9,10,10,12,12,13,13,14,14,15,15,17,17,18,18,19,19,20,20,23,23,25,25,26,26,28,28,29,29,30,30,31,31,32,32,34,34,35,35,36,36,39,39,40,40,41,41,42,42,43,43,44,44,45,45,46,46,50,50,53,53,54,54,55,55,56,56,58,58],"right_children":[2,4,6,8,10,12,-1,14,16,18,20,-1,22,24,26,28,-1,30,32,34,36,-1,-1,38,-1,40,42,-1,44,46,48,50,52,-1,54,56,58,-1,-1,60,62,64,66,68,70,72,74,-1,-1,-1,76,-1,-1,78,80,82,84,-1,86,-1,-1,-1,-1,-1,-1,-1,-1,-1,-1,-1,-1,-1,-1,-1,-1,-1,-1,-1,-1,-1,-1,-1,-1,-1,-1,-1,-1],"split_conditions":[6.89E1,2.548E3,3.04E2,6.57E1,1.15E2,6E0,4.7089008E2,1.951E3,1.02E2,5.1E3,2.5E1,3.2288494E1,4E0,1E0,8E0,6E0,3.4712402E1,5.75E1,1E0,1.4E2,3.06E3,1.8944812E2,4.855418E1,1.569E2,-8.3244415E1,1.24E2,9E1,-2.262701E1,5.9E1,1.2E2,8.7E1,1E0,1.02E2,6.359748E1,2.844E3,1.51E2,7.1E1,1.0702324E1,-4.8371876E1,4.96E1,1.26E2,2.9E1,1.12E2,1E1,6.1E1,4.6E1,1E1,-2.2895252E1,5.362945E1,3.2296581E0,5.63E1,-6.4977927E0,2.6583954E1,3.2E1,1E0,5.24E1,1.5E1,4.9430332E1,8.1E1,-1.1882559E1,-5.9051502E1,1.3974316E0,-1.3568378E1,-6.729375E0,-4.314639E1,3.070791E0,-2.5615635E1,-7.541754E0,-2.14108E1,1.1021192E1,-8.47207E-1,-1.3259912E1,2.0760439E1,7.645729E1,1.948519E1,-3.1283012E1,1.7958984E0,7.2840816E-1,-9.536641E0,-3.0570996E0,3.1766558E1,-3.532746E1,7.5114975E1,7.660674E1,1.8746303E2,-9.68622E0,8.191289E0],"split_indices":[10,12,14,10,16,0,0,12,16,17,19,0,4,3,8,8,0,11,3,14,12,0,0,9,0,0,16,0,0,14,0,8,0,0,12,14,0,0,0,11,0,0,16,8,0,0,8,0,0,0,11,0,0,0,8,11,0,0,0,0,0,0,0,0,0,0,0,0,0,0,0,0,0,0,0,0,0,0,0,0,0,0,0,0,0,0,0],"split_type":[0,0,0,0,0,0,0,0,0,0,0,0,0,0,0,0,0,0,0,0,0,0,0,0,0,0,0,0,0,0,0,0,0,0,0,0,0,0,0,0,0,0,0,0,0,0,0,0,0,0,0,0,0,0,0,0,0,0,0,0,0,0,0,0,0,0,0,0,0,0,0,0,0,0,0,0,0,0,0,0,0,0,0,0,0,0,0],"sum_hessian":[1.57E2,1.45E2,1.2E1,9.3E1,5.2E1,1E1,2E0,7.9E1,1.4E1,2.1E1,3.1E1,1E0,9E0,1.6E1,6.3E1,1.1E1,3E0,1.3E1,8E0,1.4E1,1.7E1,8E0,1E0,3E0,1.3E1,2.7E1,3.6E1,2E0,9E0,1E1,3E0,5E0,3E0,3E0,1.1E1,1.4E1,3E0,1E0,2E0,2.5E1,2E0,2.8E1,8E0,6E0,3E0,2E0,8E0,2E0,1E0,1E0,4E0,2E0,1E0,3E0,8E0,7E0,7E0,1E0,2E0,2E0,2.3E1,1E0,1E0,1E0,2.7E1,5E0,3E0,4E0,2E0,1E0,2E0,1E0,1E0,5E0,3E0,3E0,1E0,1E0,2E0,1E0,7E0,1E0,6E0,4E0,3E0,1E0,1E0],"tree_param":{"num_deleted":"0","num_feature":"20","num_nodes":"87","size_leaf_vector":"1"}},{"base_weights":[1.5237514E2,-1.354859E2,5.422775E3,-6.673369E2,1.0848728E3,2.0779475E2,4.5205444E2,-1.0364844E3,-4.1650543E2,-6.609558E2,1.2253119E3,-6.775038E2,-1.2175308E3,2.6274924E2,-5.200834E2,-1.7828007E1,-5.2572685E1,1.68593E3,8.770111E2,1.038126E1,-7.457402E2,-9.980859E0,-1.2529242E3,-1.9413729E1,4.7648996E2,-6.0063293E2,-9.7546974E1,6.119033E2,1.1815981E2,1.0123394E3,-1.2037964E2,-8.0223474E2,1.3555077E0,-2.5470556E1,-7.8390205E1,5.713514E2,-2.7803612E0,-7.33089E2,-4.0803824E2,-3.252214E2,3.2527002E2,-1.4936103E1,8.893467E2,5.893914E2,1.2421351E3,4.4416604E0,-2.1108046E1,-1.976088E1,-5.121621E1,2.5571485E0,4.011444E1,-2.5673298E1,-4.9380653E1,1.9715625E0,-2.5903564E1,-8.494834E0,-2.5653412E1,2.3933084E1,3.1327734E0,7.37903E1,2.1954199E1,6.0746258E1,8.317255E0,3.065164E1,7.9286545E1],"categories":[],"categories_nodes":[],"categories_segments":[],"categories_sizes":[],"default_left":[0,0,0,0,0,0,0,0,0,0,0,0,0,0,0,0,0,0,0,0,0,0,0,0,0,0,0,0,0,0,0,0,0,0,0,0,0,0,0,0,0,0,0,0,0,0,0,0,0,0,0,0,0,0,0,0,0,0,0,0,0,0,0,0,0],"id":30,"left_children":[1,3,5,7,9,-1,-1,11,13,15,17,19,21,23,25,-1,-1,27,29,-1,31,-1,33,-1,35,37,39,41,-1,43,45,47,-1,-1,-1,49,-1,51,53,55,57,-1,59,61,63,-1,-1,-1,-1,-1,-1,-1,-1,-1,-1,-1,-1,-1,-1,-1,-1,-1,-1,-1,-1],"loss_changes":[2.343747E8,9.613419E7,7.00688E6,9.10546E6,1.1843092E7,0E0,0E0,1.839796E6,4.569067E6,5.2907375E4,5.259636E6,1.057617E6,7.58912E5,1.2820418E6,1.813342E6,0E0,0E0,3.969412E6,3.631222E6,0E0,6.69223E5,0E0,5.5502E5,0E0,3.7365038E5,8.74348E5,1.0684309E6,1.4155589E6,0E0,1.503302E6,2.0600284E5,5.8949E4,0E0,0E0,0E0,2.799345E5,0E0,3.61393E5,2.3350825E5,7.1017125E4,5.9577188E4,0E0,2.6291075E5,1.7666225E6,1.36866E5,0E0,0E0,0E0,0E0,0E0,0E0,0E0,0E0,0E0,0E0,0E0,0E0,0E0,0E0,0E0,0E0,0E0,0E0,0E0,0E0],"parents":[2147483647,0,0,1,1,2,2,3,3,4,4,7,7,8,8,9,9,10,10,11,11,12,12,13,13,14,14,17,17,18,18,20,20,22,22,24,24,25,25,26,26,27,27,29,29,30,30,31,31,35,35,37,37,38,38,39,39,40,40,42,42,43,43,44,44],"right_children":[2,4,6,8,10,-1,-1,12,14,16,18,20,22,24,26,-1,-1,28,30,-1,32,-1,34,-1,36,38,40,42,-1,44,46,48,-1,-1,-1,50,-1,52,54,56,58,-1,60,62,64,-1,-1,-1,-1,-1,-1,-1,-1,-1,-1,-1,-1,-1,-1,-1,-1,-1,-1,-1,-1],"split_conditions":[1.94E2,2.67E3,3.04E2,2.191E3,1.21E2,2.0779475E2,4.5205444E2,1E0,2.9E1,8.7E1,4.9E3,1.569E2,2E0,2.385E3,1.766E2,-1.7828007E1,-5.2572685E1,4.2E3,2.2E1,1.038126E1,1.17E2,-9.980859E0,8.84E1,-1.9413729E1,6.1E1,9E1,9.91E1,8.5E1,1.1815981E2,6.66E1,1.1E1,2.9E1,1.3555077E0,-2.5470556E1,-7.8390205E1,3E0,-2.7803612E0,3E0,1E0,5.9E1,4E0,-1.4936103E1,4E0,1.41E2,7.5E0,4.4416604E0,-2.1108046E1,-1.976088E1,-5.121621E1,2.5571485E0,4.011444E1,-2.5673298E1,-4.9380653E1,1.9715625E0,-2.5903564E1,-8.494834E0,-2.5653412E1,2.3933084E1,3.1327734E0,7.37903E1,2.1954199E1,6.0746258E1,8.317255E0,3.065164E1,7.9286545E1],"split_indices":[14,12,14,12,14,0,0,3,19,0,17,9,4,12,9,0,0,17,18,0,0,0,7,0,0,16,7,0,0,10,8,18,0,0,0,0,0,4,5,0,4,0,4,14,15,0,0,0,0,0,0,0,0,0,0,0,0,0,0,0,0,0,0,0,0],"split_type":[0,0,0,0,0,0,0,0,0,0,0,0,0,0,0,0,0,0,0,0,0,0,0,0,0,0,0,0,0,0,0,0,0,0,0,0,0,0,0,0,0,0,0,0,0,0,0,0,0,0,0,0,0,0,0,0,0,0,0,0,0,0,0,0,0],"sum_hessian":[1.53E2,1.46E2,7E0,1.02E2,4.4E1,5E0,2E0,4E1,6.2E1,3E0,4.1E1,1.5E1,2.5E1,8E0,5.4E1,2E0,1E0,1.6E1,2.5E1,1E0,1.4E1,1E0,2.4E1,2E0,6E0,4.5E1,9E0,4E0,1.2E1,2.2E1,3E0,1.3E1,1E0,2E0,2.2E1,5E0,1E0,2.5E1,2E1,6E0,3E0,1E0,3E0,9E0,1.3E1,2E0,1E0,2E0,1.1E1,1E0,4E0,7E0,1.8E1,1E0,1.9E1,3E0,3E0,2E0,1E0,1E0,2E0,4E0,5E0,2E0,1.1E1],